{"learner":{"attributes":{"scikit_learn":"{\"_estimator_type\": \"classifier\"}"},"feature_names":["param_type","value"],"feature_types":["int","float"],"gradient_booster":{"model":{"cats":{"enc":[],"feature_segments":[],"sorted_idx":[]},"gbtree_model_param":{"num_parallel_tree":"1","num_trees":"300"},"iteration_indptr":[0,3,6,9,12,15,18,21,24,27,30,33,36,39,42,45,48,51,54,57,60,63,66,69,72,75,78,81,84,87,90,93,96,99,102,105,108,111,114,117,120,123,126,129,132,135,138,141,144,147,150,153,156,159,162,165,168,171,174,177,180,183,186,189,192,195,198,201,204,207,210,213,216,219,222,225,228,231,234,237,240,243,246,249,252,255,258,261,264,267,270,273,276,279,282,285,288,291,294,297,300],"tree_info":[0,1,2,0,1,2,0,1,2,0,1,2,0,1,2,0,1,2,0,1,2,0,1,2,0,1,2,0,1,2,0,1,2,0,1,2,0,1,2,0,1,2,0,1,2,0,1,2,0,1,2,0,1,2,0,1,2,0,1,2,0,1,2,0,1,2,0,1,2,0,1,2,0,1,2,0,1,2,0,1,2,0,1,2,0,1,2,0,1,2,0,1,2,0,1,2,0,1,2,0,1,2,0,1,2,0,1,2,0,1,2,0,1,2,0,1,2,0,1,2,0,1,2,0,1,2,0,1,2,0,1,2,0,1,2,0,1,2,0,1,2,0,1,2,0,1,2,0,1,2,0,1,2,0,1,2,0,1,2,0,1,2,0,1,2,0,1,2,0,1,2,0,1,2,0,1,2,0,1,2,0,1,2,0,1,2,0,1,2,0,1,2,0,1,2,0,1,2,0,1,2,0,1,2,0,1,2,0,1,2,0,1,2,0,1,2,0,1,2,0,1,2,0,1,2,0,1,2,0,1,2,0,1,2,0,1,2,0,1,2,0,1,2,0,1,2,0,1,2,0,1,2,0,1,2,0,1,2,0,1,2,0,1,2,0,1,2,0,1,2,0,1,2,0,1,2,0,1,2,0,1,2,0,1,2,0,1,2,0,1,2,0,1,2,0,1,2,0,1,2],"trees":[{"base_weights":[8.953681E-9,7.238087E-1,-3.793746E-1,1.1639773E0,3.1203234E-1,-1.21689685E-1,-5.199868E-1,4.479295E-1,1.1840031E-1,4.3467376E-1,-1.557175E-2,4.4086376E-1,-1.1214122E-1,-2.2080739E-1,4.2072742E-4],"categories":[],"categories_nodes":[],"categories_segments":[],"categories_sizes":[],"default_left":[0,0,0,0,0,0,0,0,0,0,0,0,0,0,0],"id":0,"left_children":[1,3,5,7,9,11,13,-1,-1,-1,-1,-1,-1,-1,-1],"loss_changes":[2.3400837E3,5.3081506E2,2.0253107E2,3.579646E2,6.271242E2,7.929607E2,4.0743054E2,0E0,0E0,0E0,0E0,0E0,0E0,0E0,0E0],"parents":[2147483647,0,0,1,1,2,2,3,3,4,4,5,5,6,6],"right_children":[2,4,6,8,10,12,14,-1,-1,-1,-1,-1,-1,-1,-1],"split_conditions":[4.8994507E1,5E0,2E0,4.0116074E1,1.2158756E1,7.045627E1,7E0,4.479295E-1,1.1840031E-1,4.3467376E-1,-1.557175E-2,4.4086376E-1,-1.1214122E-1,-2.2080739E-1,4.2072742E-4],"split_indices":[1,0,0,1,1,1,0,0,0,0,0,0,0,0,0],"split_type":[0,0,0,0,0,0,0,0,0,0,0,0,0,0,0],"sum_hessian":[8.519958E3,2.929623E3,5.590335E3,1.4151118E3,1.5145114E3,1.974234E3,3.616101E3,9.904451E2,4.2466666E2,3.665357E2,1.1479756E3,2.6935492E2,1.7048792E3,2.5564312E3,1.0596698E3],"tree_param":{"num_deleted":"0","num_feature":"2","num_nodes":"15","size_leaf_vector":"1"}},{"base_weights":[-2.493248E-8,-3.7999585E-1,1.5469745E-1,2.7621385E-1,-6.753647E-1,6.0150325E-1,-1.7995389E-1,-2.0986517E-1,3.519751E-1,-2.2219642E-1,-1.2694152E-1,4.769423E-2,2.508999E-1,-8.854042E-2,9.08874E-2],"categories":[],"categories_nodes":[],"categories_segments":[],"categories_sizes":[],"default_left":[0,0,0,0,0,0,0,0,0,0,0,0,0,0,0],"id":1,"left_children":[1,3,5,7,9,11,13,-1,-1,-1,-1,-1,-1,-1,-1],"loss_changes":[5.037271E2,4.807149E2,9.106896E2,6.750184E2,2.7845886E1,2.7089984E2,1.9380527E2,0E0,0E0,0E0,0E0,0E0,0E0,0E0,0E0],"parents":[2147483647,0,0,1,1,2,2,3,3,4,4,5,5,6,6],"right_children":[2,4,6,8,10,12,14,-1,-1,-1,-1,-1,-1,-1,-1],"split_conditions":[4.0116074E1,1.746734E1,1.002216E2,1.2158756E1,6E0,2E0,2.9845914E2,-2.0986517E-1,3.519751E-1,-2.2219642E-1,-1.2694152E-1,4.769423E-2,2.508999E-1,-8.854042E-2,9.08874E-2],"split_indices":[1,1,1,1,0,0,1,0,0,0,0,0,0,0,0],"split_type":[0,0,0,0,0,0,0,0,0,0,0,0,0,0,0],"sum_hessian":[8.5670625E3,2.4782014E3,6.0888613E3,7.6925085E2,1.7089506E3,2.6071536E3,3.4817078E3,3.6856216E2,4.0068866E2,1.3560054E3,3.5294513E2,9.0444977E2,1.7027037E3,2.8115137E3,6.7019415E2],"tree_param":{"num_deleted":"0","num_feature":"2","num_nodes":"15","size_leaf_vector":"1"}},{"base_weights":[-7.337542E-8,-4.3007445E-1,6.281059E-1,-7.4534976E-1,-2.7399886E-1,9.072362E-1,-5.487298E-3,-2.2432023E-1,-1.6930547E-1,-1.3400011E-1,1.1498333E-1,2.2966364E-1,4.51207E-1,-2.0928763E-1,4.5083448E-1],"categories":[],"categories_nodes":[],"categories_segments":[],"categories_sizes":[],"default_left":[0,0,0,0,0,0,0,0,0,0,0,0,0,0,0],"id":2,"left_children":[1,3,5,7,9,11,13,-1,-1,-1,-1,-1,-1,-1,-1],"loss_changes":[2.3000593E3,2.4848724E2,6.1202246E2,2.999878E-1,3.840065E2,2.0198108E2,1.1068911E3,0E0,0E0,0E0,0E0,0E0,0E0,0E0,0E0],"parents":[2147483647,0,0,1,1,2,2,3,3,4,4,5,5,6,6],"right_children":[2,4,6,8,10,12,14,-1,-1,-1,-1,-1,-1,-1,-1],"split_conditions":[1.002216E2,3E0,7E0,9.931893E1,6.0340588E1,2.0228249E2,9.285238E2,-2.2432023E-1,-1.6930547E-1,-1.3400011E-1,1.1498333E-1,2.2966364E-1,4.51207E-1,-2.0928763E-1,4.5083448E-1],"split_indices":[1,0,0,1,1,1,1,0,0,0,0,0,0,0,0],"split_type":[0,0,0,0,0,0,0,0,0,0,0,0,0,0,0],"sum_hessian":[8.512566E3,5.0530063E3,3.45956E3,1.6719213E3,3.381085E3,2.4012532E3,1.0583071E3,1.6470929E3,2.482832E1,2.6779116E3,7.0317346E2,1.9423726E3,4.5888052E2,7.25785E2,3.3252213E2],"tree_param":{"num_deleted":"0","num_feature":"2","num_nodes":"15","size_leaf_vector":"1"}},{"base_weights":[-3.5261821E-3,5.1323175E-1,-3.2466578E-1,8.1066215E-1,2.0959896E-1,-2.2228014E-1,-7.092306E-1,3.053179E-1,1.0155586E-1,-3.1244218E-2,2.8886843E-1,-1.1452486E-1,4.0756232E-1,-2.0199709E-1,-2.1877621E-1],"categories":[],"categories_nodes":[],"categories_segments":[],"categories_sizes":[],"default_left":[0,0,0,0,0,0,0,0,0,0,0,0,0,0,0],"id":3,"left_children":[1,3,5,7,9,11,13,-1,-1,-1,-1,-1,-1,-1,-1],"loss_changes":[1.3770624E3,2.8704694E2,2.013432E2,1.566875E2,3.7236966E2,1.0197425E3,2.822876E-1,0E0,0E0,0E0,0E0,0E0,0E0,0E0,0E0],"parents":[2147483647,0,0,1,1,2,2,3,3,4,4,5,5,6,6],"right_children":[2,4,6,8,10,12,14,-1,-1,-1,-1,-1,-1,-1,-1],"split_conditions":[5.0175472E1,5E0,2.0228249E2,4.0116074E1,6E0,7E0,5E0,3.053179E-1,1.0155586E-1,-3.1244218E-2,2.8886843E-1,-1.1452486E-1,4.0756232E-1,-2.0199709E-1,-2.1877621E-1],"split_indices":[1,0,1,1,0,0,0,0,0,0,0,0,0,0,0],"split_type":[0,0,0,0,0,0,0,0,0,0,0,0,0,0,0],"sum_hessian":[8.2959795E3,3.1793572E3,5.1166226E3,1.605239E3,1.574118E3,4.0420535E3,1.0745691E3,1.1150598E3,4.9017923E2,1.1118827E3,4.622354E2,3.6723538E3,3.6969962E2,3.9709854E2,6.774705E2],"tree_param":{"num_deleted":"0","num_feature":"2","num_nodes":"15","size_leaf_vector":"1"}},{"base_weights":[3.7501159E-3,-3.240998E-1,1.2604341E-1,2.5303236E-1,-6.087921E-1,4.3643662E-1,-1.3237998E-1,-1.8203118E-1,2.583308E-1,-2.0948966E-1,-1.2963858E-1,9.9244215E-2,3.633616E-1,-7.180052E-2,8.818262E-2],"categories":[],"categories_nodes":[],"categories_segments":[],"categories_sizes":[],"default_left":[0,0,0,0,0,0,0,0,0,0,0,0,0,0,0],"id":4,"left_children":[1,3,5,7,9,11,13,-1,-1,-1,-1,-1,-1,-1,-1],"loss_changes":[3.370262E2,3.7537708E2,4.9113837E2,3.9530197E2,2.3885193E1,2.2723145E2,1.524362E2,0E0,0E0,0E0,0E0,0E0,0E0,0E0,0E0],"parents":[2147483647,0,0,1,1,2,2,3,3,4,4,5,5,6,6],"right_children":[2,4,6,8,10,12,14,-1,-1,-1,-1,-1,-1,-1,-1],"split_conditions":[4.0116074E1,1.746734E1,1.002216E2,1.2158756E1,3.0118732E1,5E0,2.9845914E2,-1.8203118E-1,2.583308E-1,-2.0948966E-1,-1.2963858E-1,9.9244215E-2,3.633616E-1,-7.180052E-2,8.818262E-2],"split_indices":[1,1,1,1,1,0,1,0,0,0,0,0,0,0,0],"split_type":[0,0,0,0,0,0,0,0,0,0,0,0,0,0,0],"sum_hessian":[8.403915E3,2.282697E3,6.121218E3,7.540955E2,1.5286016E3,2.7806638E3,3.3405537E3,3.123869E2,4.4170862E2,1.0126095E3,5.1599207E2,2.4483171E3,3.3234686E2,2.6709165E3,6.6963727E2],"tree_param":{"num_deleted":"0","num_feature":"2","num_nodes":"15","size_leaf_vector":"1"}},{"base_weights":[-2.717551E-4,-3.595724E-1,4.5314735E-1,-6.7973846E-1,-2.1115667E-1,6.3271046E-1,-4.4674994E-3,-2.045876E-1,-1.5618153E-1,-1.1177724E-1,1.0187404E-1,1.0923142E-1,2.658564E-1,-2.1046323E-1,3.3520225E-1],"categories":[],"categories_nodes":[],"categories_segments":[],"categories_sizes":[],"default_left":[0,0,0,0,0,0,0,0,0,0,0,0,0,0,0],"id":5,"left_children":[1,3,5,7,9,11,13,-1,-1,-1,-1,-1,-1,-1,-1],"loss_changes":[1.3565736E3,2.2060608E2,3.0249908E2,1.6461182E-1,2.8246637E2,1.7968799E2,8.12817E2,0E0,0E0,0E0,0E0,0E0,0E0,0E0,0E0],"parents":[2147483647,0,0,1,1,2,2,3,3,4,4,5,5,6,6],"right_children":[2,4,6,8,10,12,14,-1,-1,-1,-1,-1,-1,-1,-1],"split_conditions":[1.002216E2,3E0,7E0,9.931893E1,6.0340588E1,2E0,8.720408E2,-2.045876E-1,-1.5618153E-1,-1.1177724E-1,1.0187404E-1,1.0923142E-1,2.658564E-1,-2.1046323E-1,3.3520225E-1],"split_indices":[1,0,0,1,1,0,1,0,0,0,0,0,0,0,0],"split_type":[0,0,0,0,0,0,0,0,0,0,0,0,0,0,0],"sum_hessian":[8.324942E3,4.644629E3,3.6803135E3,1.4699775E3,3.1746514E3,2.6428896E3,1.0374238E3,1.4465114E3,2.3466246E1,2.4552751E3,7.1937634E2,1.2843365E3,1.358553E3,6.4006854E2,3.9735532E2],"tree_param":{"num_deleted":"0","num_feature":"2","num_nodes":"15","size_leaf_vector":"1"}},{"base_weights":[-7.816054E-3,3.9142054E-1,-2.77309E-1,6.505519E-1,1.3605104E-1,-1.8247508E-1,-6.613472E-1,2.4960227E-1,8.97957E-2,2.82216E-1,-4.346616E-2,-9.6662454E-2,2.9927754E-1,-2.0270354E-1,-1.8466417E-1],"categories":[],"categories_nodes":[],"categories_segments":[],"categories_sizes":[],"default_left":[0,0,0,0,0,0,0,0,0,0,0,0,0,0,0],"id":6,"left_children":[1,3,5,7,9,11,13,-1,-1,-1,-1,-1,-1,-1,-1],"loss_changes":[8.469758E2,2.0984433E2,1.7104224E2,1.0008923E2,3.6162668E2,6.2203644E2,1.9470215E-1,0E0,0E0,0E0,0E0,0E0,0E0,0E0,0E0],"parents":[2147483647,0,0,1,1,2,2,3,3,4,4,5,5,6,6],"right_children":[2,4,6,8,10,12,14,-1,-1,-1,-1,-1,-1,-1,-1],"split_conditions":[5.0175472E1,5E0,2.0228249E2,3.9517147E1,1.2158756E1,7E0,9.285238E2,2.4960227E-1,8.97957E-2,2.82216E-1,-4.346616E-2,-9.6662454E-2,2.9927754E-1,-2.0270354E-1,-1.8466417E-1],"split_indices":[1,0,1,1,1,0,1,0,0,0,0,0,0,0,0],"split_type":[0,0,0,0,0,0,0,0,0,0,0,0,0,0,0],"sum_hessian":[7.870138E3,3.171424E3,4.6987144E3,1.5733496E3,1.5980743E3,3.7693828E3,9.293317E2,1.0364995E3,5.368501E2,4.12949E2,1.1851254E3,3.3709514E3,3.9843134E2,6.9736664E2,2.3196507E2],"tree_param":{"num_deleted":"0","num_feature":"2","num_nodes":"15","size_leaf_vector":"1"}},{"base_weights":[8.515242E-3,-2.8645188E-1,1.07793726E-1,1.9188584E-1,-5.595289E-1,3.2276207E-1,-8.743134E-2,-1.9426943E-1,1.9876279E-1,-1.9080907E-1,-9.150957E-2,6.891013E-2,3.0196074E-1,-2.0811763E-1,-6.0850093E-3],"categories":[],"categories_nodes":[],"categories_segments":[],"categories_sizes":[],"default_left":[0,0,0,0,0,0,0,0,0,0,0,0,0,0,0],"id":7,"left_children":[1,3,5,7,9,11,13,-1,-1,-1,-1,-1,-1,-1,-1],"loss_changes":[2.373703E2,2.667364E2,2.5454128E2,2.9380753E2,2.5109375E1,1.8344885E2,1.2940836E2,0E0,0E0,0E0,0E0,0E0,0E0,0E0,0E0],"parents":[2147483647,0,0,1,1,2,2,3,3,4,4,5,5,6,6],"right_children":[2,4,6,8,10,12,14,-1,-1,-1,-1,-1,-1,-1,-1],"split_conditions":[3.9517147E1,1.746734E1,1.002216E2,1.1414994E1,6E0,5E0,1E0,-1.9426943E-1,1.9876279E-1,-1.9080907E-1,-9.150957E-2,6.891013E-2,3.0196074E-1,-2.0811763E-1,-6.0850093E-3],"split_indices":[1,1,1,1,0,0,0,0,0,0,0,0,0,0,0],"split_type":[0,0,0,0,0,0,0,0,0,0,0,0,0,0,0],"sum_hessian":[8.1037783E3,2.0402096E3,6.063569E3,7.415553E2,1.2986543E3,2.8855486E3,3.1780203E3,2.662691E2,4.752862E2,9.973529E2,3.0130142E2,2.5410479E3,3.4450085E2,3.159456E2,2.8620745E3],"tree_param":{"num_deleted":"0","num_feature":"2","num_nodes":"15","size_leaf_vector":"1"}},{"base_weights":[-9.450935E-4,-3.0389056E-1,3.5144705E-1,-6.3936424E-1,-1.5860608E-1,3.2673204E-1,2.6385358E-1,-1.9254299E-1,-1.4270741E-1,-3.873042E-3,-2.0853029E-1,5.2250713E-2,2.8707084E-1],"categories":[],"categories_nodes":[],"categories_segments":[],"categories_sizes":[],"default_left":[0,0,0,0,0,0,0,0,0,0,0,0,0],"id":8,"left_children":[1,3,5,7,9,-1,11,-1,-1,-1,-1,-1,-1],"loss_changes":[8.4647675E2,2.0770694E2,2.3655081E2,2.1038818E-1,2.3265237E2,0E0,2.0356067E2,0E0,0E0,0E0,0E0,0E0,0E0],"parents":[2147483647,0,0,1,1,2,2,3,3,4,4,6,6],"right_children":[2,4,6,8,10,-1,12,-1,-1,-1,-1,-1,-1],"split_conditions":[1.002216E2,3E0,1E0,9.931893E1,6E0,3.2673204E-1,9.285238E2,-1.9254299E-1,-1.4270741E-1,-3.873042E-3,-2.0853029E-1,5.2250713E-2,2.8707084E-1],"split_indices":[1,0,0,1,0,0,1,0,0,0,0,0,0],"split_type":[0,0,0,0,0,0,0,0,0,0,0,0,0],"sum_hessian":[7.927108E3,4.262687E3,3.664421E3,1.2871508E3,2.9755361E3,3.8773294E2,3.276688E3,1.265322E3,2.182867E1,2.3408542E3,6.346818E2,2.9023574E3,3.7433047E2],"tree_param":{"num_deleted":"0","num_feature":"2","num_nodes":"13","size_leaf_vector":"1"}},{"base_weights":[-8.154641E-3,2.765225E-1,-2.997384E-1,1.1297066E0,1.6131644E-1,-4.049737E-1,2.3772882E-2,2.1111082E-1,3.559937E-1,1.00473866E-1,-1.1739442E-1,-5.742162E-2,-1.8690307E-1,2.6239675E-1,-1.920649E-1],"categories":[],"categories_nodes":[],"categories_segments":[],"categories_sizes":[],"default_left":[0,0,0,0,0,0,0,0,0,0,0,0,0,0,0],"id":9,"left_children":[1,3,5,7,9,11,13,-1,-1,-1,-1,-1,-1,-1,-1],"loss_changes":[6.113437E2,3.6611487E2,1.2387564E2,9.914734E0,3.1522363E2,1.2772012E2,5.0563046E2,0E0,0E0,0E0,0E0,0E0,0E0,0E0,0E0],"parents":[2147483647,0,0,1,1,2,2,3,3,4,4,5,5,6,6],"right_children":[2,4,6,8,10,12,14,-1,-1,-1,-1,-1,-1,-1,-1],"split_conditions":[6.975118E1,2E0,7E0,4.0116074E1,4.196799E1,2E0,2.0228249E2,2.1111082E-1,3.559937E-1,1.00473866E-1,-1.1739442E-1,-5.742162E-2,-1.8690307E-1,2.6239675E-1,-1.920649E-1],"split_indices":[1,0,0,1,1,0,1,0,0,0,0,0,0,0,0],"split_type":[0,0,0,0,0,0,0,0,0,0,0,0,0,0,0],"sum_hessian":[7.3629463E3,3.7256228E3,3.6373237E3,4.421769E2,3.2834458E3,2.7443572E3,8.929664E2,5.3707733E1,3.8846918E2,2.4988752E3,7.845705E2,1.3873329E3,1.3570244E3,3.9126035E2,5.0170605E2],"tree_param":{"num_deleted":"0","num_feature":"2","num_nodes":"15","size_leaf_vector":"1"}},{"base_weights":[7.4990173E-3,-2.523984E-1,8.647818E-2,2.0067371E-1,-5.2450335E-1,1.2399156E-1,-1.995505E-1,-1.7969574E-1,1.6860431E-1,-1.8937287E-1,-8.164584E-2,1.9391377E-2,2.8935915E-1],"categories":[],"categories_nodes":[],"categories_segments":[],"categories_sizes":[],"default_left":[0,0,0,0,0,0,0,0,0,0,0,0,0],"id":10,"left_children":[1,3,5,7,9,11,-1,-1,-1,-1,-1,-1,-1],"loss_changes":[1.5923668E2,2.2300272E2,1.6784059E2,1.965725E2,3.0262299E1,2.826874E2,0E0,0E0,0E0,0E0,0E0,0E0,0E0],"parents":[2147483647,0,0,1,1,2,2,3,3,4,4,5,5],"right_children":[2,4,6,8,10,12,-1,-1,-1,-1,-1,-1,-1],"split_conditions":[3.9517147E1,1.746734E1,9.285238E2,1.1414994E1,3.0118732E1,2.9845914E2,-1.995505E-1,-1.7969574E-1,1.6860431E-1,-1.8937287E-1,-8.164584E-2,1.9391377E-2,2.8935915E-1],"split_indices":[1,1,1,1,1,1,0,0,0,0,0,0,0],"split_type":[0,0,0,0,0,0,0,0,0,0,0,0,0],"sum_hessian":[7.755558E3,1.8070121E3,5.948546E3,6.7813556E2,1.1288766E3,5.6665723E3,2.819738E2,2.1085292E2,4.6728265E2,7.922629E2,3.3661368E2,5.2938315E3,3.7274063E2],"tree_param":{"num_deleted":"0","num_feature":"2","num_nodes":"13","size_leaf_vector":"1"}},{"base_weights":[2.494339E-4,-2.5440103E-1,2.7557653E-1,-6.107444E-1,-1.123877E-1,3.9761043E-1,-6.98749E-2,-1.8406783E-1,-1.3100481E-1,-8.41974E-2,1.21875584E-1,4.1658297E-2,1.9250198E-1,-1.9750655E-1,2.2766598E-1],"categories":[],"categories_nodes":[],"categories_segments":[],"categories_sizes":[],"default_left":[0,0,0,0,0,0,0,0,0,0,0,0,0,0,0],"id":11,"left_children":[1,3,5,7,9,11,13,-1,-1,-1,-1,-1,-1,-1,-1],"loss_changes":[5.2957355E2,1.985053E2,1.5302634E2,2.798462E-1,2.450856E2,1.6928384E2,4.6296945E2,0E0,0E0,0E0,0E0,0E0,0E0,0E0,0E0],"parents":[2147483647,0,0,1,1,2,2,3,3,4,4,5,5,6,6],"right_children":[2,4,6,8,10,12,14,-1,-1,-1,-1,-1,-1,-1,-1],"split_conditions":[1.002216E2,3E0,7E0,9.931893E1,6.0340588E1,2E0,8.720408E2,-1.8406783E-1,-1.3100481E-1,-8.41974E-2,1.21875584E-1,4.1658297E-2,1.9250198E-1,-1.9750655E-1,2.2766598E-1],"split_indices":[1,0,0,1,1,0,1,0,0,0,0,0,0,0,0],"split_type":[0,0,0,0,0,0,0,0,0,0,0,0,0,0,0],"sum_hessian":[7.551233E3,3.9229587E3,3.6282744E3,1.1169583E3,2.8060005E3,2.6810261E3,9.472481E2,1.0966968E3,2.0261452E1,2.1189692E3,6.8703125E2,1.3021196E3,1.3789066E3,5.540432E2,3.9320486E2],"tree_param":{"num_deleted":"0","num_feature":"2","num_nodes":"15","size_leaf_vector":"1"}},{"base_weights":[-1.47364335E-2,2.111478E-1,-2.652707E-1,9.317168E-1,1.0928808E-1,-6.6336834E-1,-1.768602E-1,1.9289787E-1,2.890315E-1,6.417412E-2,-1.8491772E-1,-2.0754018E-1,-1.8668674E-1,5.4163504E-2,-1.1235928E-1],"categories":[],"categories_nodes":[],"categories_segments":[],"categories_sizes":[],"default_left":[0,0,0,0,0,0,0,0,0,0,0,0,0,0,0],"id":12,"left_children":[1,3,5,7,9,11,13,-1,-1,-1,-1,-1,-1,-1,-1],"loss_changes":[3.8676358E2,2.636852E2,1.1392862E2,3.4560852E0,2.3929407E2,2.5683594E-1,1.8748602E2,0E0,0E0,0E0,0E0,0E0,0E0,0E0,0E0],"parents":[2147483647,0,0,1,1,2,2,3,3,4,4,5,5,6,6],"right_children":[2,4,6,8,10,12,14,-1,-1,-1,-1,-1,-1,-1,-1],"split_conditions":[6.975118E1,2E0,1E0,4.0116074E1,5.0175472E1,1.002216E2,1.19789345E2,1.9289787E-1,2.890315E-1,6.417412E-2,-1.8491772E-1,-2.0754018E-1,-1.8668674E-1,5.4163504E-2,-1.1235928E-1],"split_indices":[1,0,0,1,1,1,1,0,0,0,0,0,0,0,0],"split_type":[0,0,0,0,0,0,0,0,0,0,0,0,0,0,0],"sum_hessian":[6.832286E3,3.592978E3,3.239308E3,4.439897E2,3.1489883E3,5.874802E2,2.651828E3,4.6056923E1,3.9793277E2,2.7528054E3,3.9618307E2,3.3782224E2,2.4965797E2,9.4438586E2,1.7074421E3],"tree_param":{"num_deleted":"0","num_feature":"2","num_nodes":"15","size_leaf_vector":"1"}},{"base_weights":[1.4341685E-2,-2.1984097E-1,8.0295876E-2,1.966419E-1,-4.8707426E-1,1.0913401E-1,-1.8422027E-1,-1.7326942E-1,1.5028131E-1,-1.8074508E-1,-6.715067E-2,1.9090641E-2,2.2703262E-1],"categories":[],"categories_nodes":[],"categories_segments":[],"categories_sizes":[],"default_left":[0,0,0,0,0,0,0,0,0,0,0,0,0],"id":13,"left_children":[1,3,5,7,9,11,-1,-1,-1,-1,-1,-1,-1],"loss_changes":[1.1469147E2,1.8170969E2,1.1608127E2,1.5071216E2,3.0071533E1,1.6389119E2,0E0,0E0,0E0,0E0,0E0,0E0,0E0],"parents":[2147483647,0,0,1,1,2,2,3,3,4,4,5,5],"right_children":[2,4,6,8,10,12,-1,-1,-1,-1,-1,-1,-1],"split_conditions":[3.9517147E1,1.746734E1,9.285238E2,1.1414994E1,3.0118732E1,2.9845914E2,-1.8422027E-1,-1.7326942E-1,1.5028131E-1,-1.8074508E-1,-6.715067E-2,1.9090641E-2,2.2703262E-1],"split_indices":[1,1,1,1,1,1,0,0,0,0,0,0,0],"split_type":[0,0,0,0,0,0,0,0,0,0,0,0,0],"sum_hessian":[7.423498E3,1.6307792E3,5.7927188E3,6.375E2,9.932792E2,5.5625396E3,2.3017917E2,1.7961508E2,4.5788495E2,6.8963855E2,3.036406E2,5.198434E3,3.6410562E2],"tree_param":{"num_deleted":"0","num_feature":"2","num_nodes":"13","size_leaf_vector":"1"}},{"base_weights":[-8.163052E-4,-2.214729E-1,2.3467882E-1,-5.889149E-1,-9.085232E-2,2.527788E-1,1.5917619E-1,-1.7765236E-1,-1.21869154E-1,1.509218E-2,-1.9455795E-1,-5.685073E-2,9.289278E-2],"categories":[],"categories_nodes":[],"categories_segments":[],"categories_sizes":[],"default_left":[0,0,0,0,0,0,0,0,0,0,0,0,0],"id":14,"left_children":[1,3,5,7,9,-1,11,-1,-1,-1,-1,-1,-1],"loss_changes":[3.6808688E2,1.754656E2,1.5714311E2,3.3044434E-1,2.125087E2,0E0,1.6003537E2,0E0,0E0,0E0,0E0,0E0,0E0],"parents":[2147483647,0,0,1,1,2,2,3,3,4,4,6,6],"right_children":[2,4,6,8,10,-1,12,-1,-1,-1,-1,-1,-1],"split_conditions":[1.002216E2,3E0,1E0,9.931893E1,6E0,2.527788E-1,2E0,-1.7765236E-1,-1.21869154E-1,1.509218E-2,-1.9455795E-1,-5.685073E-2,9.289278E-2],"split_indices":[1,0,0,1,0,0,0,0,0,0,0,0,0],"split_type":[0,0,0,0,0,0,0,0,0,0,0,0,0],"sum_hessian":[7.0815596E3,3.6559912E3,3.425568E3,9.578905E2,2.6981008E3,3.773264E2,3.0482417E3,9.3889624E2,1.8994247E1,2.153829E3,5.442717E2,9.1880896E2,2.1294326E3],"tree_param":{"num_deleted":"0","num_feature":"2","num_nodes":"13","size_leaf_vector":"1"}},{"base_weights":[-1.5387724E-2,1.6753674E-1,-2.2234783E-1,8.1716573E-1,7.6438494E-2,-3.3454E-1,1.3417836E-1,1.8061692E-1,2.5118375E-1,5.0600093E-2,-1.7140134E-1,-3.3818692E-2,-1.7685197E-1,2.4113321E-1,-1.7438859E-1],"categories":[],"categories_nodes":[],"categories_segments":[],"categories_sizes":[],"default_left":[0,0,0,0,0,0,0,0,0,0,0,0,0,0,0],"id":15,"left_children":[1,3,5,7,9,11,13,-1,-1,-1,-1,-1,-1,-1,-1],"loss_changes":[2.456351E2,2.0376562E2,1.2180846E2,1.3281555E0,1.806243E2,1.3090079E2,3.49887E2,0E0,0E0,0E0,0E0,0E0,0E0,0E0,0E0],"parents":[2147483647,0,0,1,1,2,2,3,3,4,4,5,5,6,6],"right_children":[2,4,6,8,10,12,14,-1,-1,-1,-1,-1,-1,-1,-1],"split_conditions":[6.975118E1,2E0,7E0,4.0116074E1,4.956997E1,2E0,2.0228249E2,1.8061692E-1,2.5118375E-1,5.0600093E-2,-1.7140134E-1,-3.3818692E-2,-1.7685197E-1,2.4113321E-1,-1.7438859E-1],"split_indices":[1,0,0,1,1,0,1,0,0,0,0,0,0,0,0],"split_type":[0,0,0,0,0,0,0,0,0,0,0,0,0,0,0],"sum_hessian":[6.4863325E3,3.4432024E3,3.0431301E3,4.2248157E2,3.020721E3,2.314775E3,7.283551E2,3.8770462E1,3.837111E2,2.6448892E3,3.7583188E2,1.2386444E3,1.0761305E3,3.7617563E2,3.5217947E2],"tree_param":{"num_deleted":"0","num_feature":"2","num_nodes":"15","size_leaf_vector":"1"}},{"base_weights":[1.4858527E-2,-1.9018272E-1,6.829248E-2,1.9771418E-1,-4.5496538E-1,1.9466528E-1,-5.491081E-2,1.083221E-1,-3.8221648E-1,-1.7419001E-1,-5.5021297E-2,-3.9941154E-2,1.08844005E-1,-1.835757E-1,-1.4030293E-3],"categories":[],"categories_nodes":[],"categories_segments":[],"categories_sizes":[],"default_left":[0,0,0,0,0,0,0,0,0,0,0,0,0,0,0],"id":16,"left_children":[1,3,5,7,9,11,13,-1,-1,-1,-1,-1,-1,-1,-1],"loss_changes":[7.839903E1,1.5202644E2,8.838678E1,1.4491547E2,2.9906845E1,1.545084E2,8.043991E1,0E0,0E0,0E0,0E0,0E0,0E0,0E0,0E0],"parents":[2147483647,0,0,1,1,2,2,3,3,4,4,5,5,6,6],"right_children":[2,4,6,8,10,12,14,-1,-1,-1,-1,-1,-1,-1,-1],"split_conditions":[3.9517147E1,1.746734E1,1.002216E2,6E0,3.0118732E1,2E0,1E0,1.083221E-1,-3.8221648E-1,-1.7419001E-1,-5.5021297E-2,-3.9941154E-2,1.08844005E-1,-1.835757E-1,-1.4030293E-3],"split_indices":[1,1,1,0,1,0,0,0,0,0,0,0,0,0,0],"split_type":[0,0,0,0,0,0,0,0,0,0,0,0,0,0,0],"sum_hessian":[7.153515E3,1.4782999E3,5.6752153E3,5.998277E2,8.784722E2,2.801285E3,2.8739304E3,5.4058044E2,5.9247227E1,5.997794E2,2.786928E2,9.498238E2,1.8514612E3,2.368206E2,2.6371099E3],"tree_param":{"num_deleted":"0","num_feature":"2","num_nodes":"15","size_leaf_vector":"1"}},{"base_weights":[-9.55543E-4,-1.8941434E-1,1.9272077E-1,-5.729664E-1,-6.8741694E-2,2.2379203E-1,1.2859511E-1,-1.7304258E-1,-1.1338818E-1,1.6915E-2,-1.86385E-1,-1.17850965E-2,1.258064E-1],"categories":[],"categories_nodes":[],"categories_segments":[],"categories_sizes":[],"default_left":[0,0,0,0,0,0,0,0,0,0,0,0,0],"id":17,"left_children":[1,3,5,7,9,-1,11,-1,-1,-1,-1,-1,-1],"loss_changes":[2.4757146E2,1.5907155E2,1.1858005E2,3.982849E-1,1.8090436E2,0E0,1.4639735E2,0E0,0E0,0E0,0E0,0E0,0E0],"parents":[2147483647,0,0,1,1,2,2,3,3,4,4,6,6],"right_children":[2,4,6,8,10,-1,12,-1,-1,-1,-1,-1,-1],"split_conditions":[1.002216E2,3E0,1E0,9.931893E1,6E0,2.2379203E-1,1.9868927E2,-1.7304258E-1,-1.1338818E-1,1.6915E-2,-1.86385E-1,-1.17850965E-2,1.258064E-1],"split_indices":[1,0,0,1,0,0,1,0,0,0,0,0,0],"split_type":[0,0,0,0,0,0,0,0,0,0,0,0,0],"sum_hessian":[6.7807783E3,3.4366914E3,3.344087E3,8.215828E2,2.6151086E3,3.4623816E2,2.9978489E3,8.03788E2,1.779483E1,2.1329846E3,4.8212396E2,1.9010724E3,1.0967764E3],"tree_param":{"num_deleted":"0","num_feature":"2","num_nodes":"13","size_leaf_vector":"1"}},{"base_weights":[-1.7134324E-2,8.971116E-2,-3.3609018E-1,4.879461E-1,-2.6932284E-2,-1.7496912E-1,7.017467E-2,-2.6048508E-3,4.859601E-1,3.964994E-2,-1.4379515E-1,2.2233991E-1,-1.6957869E-1],"categories":[],"categories_nodes":[],"categories_segments":[],"categories_sizes":[],"default_left":[0,0,0,0,0,0,0,0,0,0,0,0,0],"id":18,"left_children":[1,3,5,7,9,-1,11,-1,-1,-1,-1,-1,-1],"loss_changes":[2.0639421E2,2.1075272E2,1.5262508E2,5.7780725E2,2.5268658E2,0E0,2.4586697E2,0E0,0E0,0E0,0E0,0E0,0E0],"parents":[2147483647,0,0,1,1,2,2,3,3,4,4,6,6],"right_children":[2,4,6,8,10,-1,12,-1,-1,-1,-1,-1,-1],"split_conditions":[1.19789345E2,2E0,7E0,1E0,5.0175472E1,-1.7496912E-1,2.0228249E2,-2.6048508E-3,4.859601E-1,3.964994E-2,-1.4379515E-1,2.2233991E-1,-1.6957869E-1],"split_indices":[1,0,0,0,1,0,1,0,0,0,0,0,0],"split_type":[0,0,0,0,0,0,0,0,0,0,0,0,0],"sum_hessian":[6.054463E3,4.5357666E3,1.518696E3,1.026837E3,3.5089297E3,9.440022E2,5.746938E2,7.143911E2,3.124459E2,2.5964832E3,9.1244653E2,2.794529E2,2.952409E2],"tree_param":{"num_deleted":"0","num_feature":"2","num_nodes":"13","size_leaf_vector":"1"}},{"base_weights":[1.6130382E-2,3.23885E-2,-1.7369771E-1,-3.4537003E-3,6.835254E-1,8.886574E-3,-1.38552E-1,2.2585641E-1,3.3177324E-2],"categories":[],"categories_nodes":[],"categories_segments":[],"categories_sizes":[],"default_left":[0,0,0,0,0,0,0,0,0],"id":19,"left_children":[1,3,-1,5,7,-1,-1,-1,-1],"loss_changes":[6.652668E1,1.5618031E2,0E0,9.619465E1,1.3785309E1,0E0,0E0,0E0,0E0],"parents":[2147483647,0,0,1,1,3,3,4,4],"right_children":[2,4,-1,6,8,-1,-1,-1,-1],"split_conditions":[9.285238E2,2.9845914E2,-1.7369771E-1,2.0228249E2,8.720408E2,8.886574E-3,-1.38552E-1,2.2585641E-1,3.3177324E-2],"split_indices":[1,1,0,1,1,0,0,0,0],"split_type":[0,0,0,0,0,0,0,0,0],"sum_hessian":[6.8727954E3,6.690951E3,1.8184407E2,6.3428027E3,3.481485E2,5.916802E3,4.2600116E2,3.102874E2,3.786107E1],"tree_param":{"num_deleted":"0","num_feature":"2","num_nodes":"9","size_leaf_vector":"1"}},{"base_weights":[-1.1014426E-3,-1.8081063E-1,4.6076126E-2,6.2801903E-1,-1.9399455E-2,2.9120314E-1,-1.7937084E-1,-1.7795996E-1,3.4064986E-2],"categories":[],"categories_nodes":[],"categories_segments":[],"categories_sizes":[],"default_left":[0,0,0,0,0,0,0,0,0],"id":20,"left_children":[1,-1,3,5,7,-1,-1,-1,-1],"loss_changes":[1.8351424E2,0E0,2.2846646E2,2.5530974E2,4.112741E2,0E0,0E0,0E0,0E0],"parents":[2147483647,0,0,2,2,3,3,4,4],"right_children":[2,-1,4,6,8,-1,-1,-1,-1],"split_conditions":[1.746734E1,-1.8081063E-1,2.6193632E1,6E0,6.0340588E1,2.9120314E-1,-1.7937084E-1,-1.7795996E-1,3.4064986E-2],"split_indices":[1,0,1,0,1,0,0,0,0],"split_type":[0,0,0,0,0,0,0,0,0],"sum_hessian":[6.4638765E3,4.6918106E2,5.9946953E3,6.0539453E2,5.389301E3,4.7330814E2,1.3208641E2,1.01315076E3,4.37615E3],"tree_param":{"num_deleted":"0","num_feature":"2","num_nodes":"9","size_leaf_vector":"1"}},{"base_weights":[-1.4088941E-2,6.6810614E-1,-5.8043294E-2,2.1142812E-1,1.0543474E-1,-1.2493633E-2,-5.4884064E-1,-1.930278E-2,2.1398808E-1,-1.00073494E-1,-1.6705683E-1],"categories":[],"categories_nodes":[],"categories_segments":[],"categories_sizes":[],"default_left":[0,0,0,0,0,0,0,0,0,0,0],"id":21,"left_children":[1,3,5,-1,-1,7,9,-1,-1,-1,-1],"loss_changes":[1.7278229E2,3.8006897E0,1.21006996E2,0E0,0E0,1.864876E2,6.074066E-1,0E0,0E0,0E0,0E0],"parents":[2147483647,0,0,1,1,2,2,5,5,6,6],"right_children":[2,4,6,-1,-1,8,10,-1,-1,-1,-1],"split_conditions":[1.2158756E1,1.1414994E1,1.9868927E2,2.1142812E-1,1.0543474E-1,7E0,2.0228249E2,-1.930278E-2,2.1398808E-1,-1.00073494E-1,-1.6705683E-1],"split_indices":[1,1,1,0,0,0,1,0,0,0,0],"split_type":[0,0,0,0,0,0,0,0,0,0,0],"sum_hessian":[5.7599126E3,3.4779218E2,5.4121206E3,3.1061203E2,3.7180145E1,4.9534307E3,4.586899E2,4.6240107E3,3.2941986E2,1.7996424E1,4.4069348E2],"tree_param":{"num_deleted":"0","num_feature":"2","num_nodes":"11","size_leaf_vector":"1"}},{"base_weights":[1.8986866E-2,-1.6993044E-1,3.3499505E-2,5.897853E-1,9.800814E-3,1.9498654E-1,-2.8486553E-1,-9.093417E-2,1.9269798E-2],"categories":[],"categories_nodes":[],"categories_segments":[],"categories_sizes":[],"default_left":[0,0,0,0,0,0,0,0,0],"id":22,"left_children":[1,-1,3,5,7,-1,-1,-1,-1],"loss_changes":[5.7067482E1,0E0,8.638733E1,2.541706E1,1.0709437E2,0E0,0E0,0E0,0E0],"parents":[2147483647,0,0,2,2,3,3,4,4],"right_children":[2,-1,4,6,8,-1,-1,-1,-1],"split_conditions":[1.1414994E1,-1.6993044E-1,1.5592218E1,6E0,3.9517147E1,1.9498654E-1,-2.8486553E-1,-9.093417E-2,1.9269798E-2],"split_indices":[1,0,1,0,1,0,0,0,0],"split_type":[0,0,0,0,0,0,0,0,0],"sum_hessian":[6.7137383E3,1.6148792E2,6.5522505E3,2.6675485E2,6.2854956E3,2.5727618E2,9.47868E0,9.3068085E2,5.354815E3],"tree_param":{"num_deleted":"0","num_feature":"2","num_nodes":"9","size_leaf_vector":"1"}},{"base_weights":[-7.4880384E-3,-1.7490952E-1,3.3146065E-2,5.189697E-1,-2.6893096E-2,-1.7998846E-1,2.4702446E-1,-1.7247272E-1,2.6102293E-2],"categories":[],"categories_nodes":[],"categories_segments":[],"categories_sizes":[],"default_left":[0,0,0,0,0,0,0,0,0],"id":23,"left_children":[1,-1,3,5,7,-1,-1,-1,-1],"loss_changes":[1.4470714E2,0E0,1.6859921E2,2.1706668E2,3.2119522E2,0E0,0E0,0E0,0E0],"parents":[2147483647,0,0,2,2,3,3,4,4],"right_children":[2,-1,4,6,8,-1,-1,-1,-1],"split_conditions":[1.746734E1,-1.7490952E-1,2.6193632E1,5E0,6.0340588E1,-1.7998846E-1,2.4702446E-1,-1.7247272E-1,2.6102293E-2],"split_indices":[1,0,1,0,1,0,0,0,0],"split_type":[0,0,0,0,0,0,0,0,0],"sum_hessian":[6.185756E3,4.07042E2,5.778714E3,6.3475696E2,5.143957E3,1.3556018E2,4.9919675E2,8.8446106E2,4.259496E3],"tree_param":{"num_deleted":"0","num_feature":"2","num_nodes":"9","size_leaf_vector":"1"}},{"base_weights":[-1.3906444E-2,7.296432E-2,-3.2053944E-1,4.2228535E-1,-3.9440464E-2,-1.6907537E-1,1.0178251E-1,1.7726362E-3,3.795023E-1,2.9214958E-2,-1.3661297E-1,1.9777815E-1,-1.6233706E-1],"categories":[],"categories_nodes":[],"categories_segments":[],"categories_sizes":[],"default_left":[0,0,0,0,0,0,0,0,0,0,0,0,0],"id":24,"left_children":[1,3,5,7,9,-1,11,-1,-1,-1,-1,-1,-1],"loss_changes":[1.4669911E2,1.6852744E2,1.248495E2,3.6662006E2,1.848728E2,0E0,1.5982896E2,0E0,0E0,0E0,0E0,0E0,0E0],"parents":[2147483647,0,0,1,1,2,2,3,3,4,4,6,6],"right_children":[2,4,6,8,10,-1,12,-1,-1,-1,-1,-1,-1],"split_conditions":[1.19789345E2,2E0,7E0,1E0,5.0175472E1,-1.6907537E-1,2.0228249E2,1.7726362E-3,3.795023E-1,2.9214958E-2,-1.3661297E-1,1.9777815E-1,-1.6233706E-1],"split_indices":[1,0,0,0,1,0,1,0,0,0,0,0,0],"split_type":[0,0,0,0,0,0,0,0,0,0,0,0,0],"sum_hessian":[5.505374E3,4.2905894E3,1.2147848E3,1.0438508E3,3.2467385E3,7.7083624E2,4.439486E2,6.993295E2,3.4452133E2,2.4436553E3,8.030832E2,2.3775798E2,2.0619063E2],"tree_param":{"num_deleted":"0","num_feature":"2","num_nodes":"13","size_leaf_vector":"1"}},{"base_weights":[1.646943E-2,3.0909529E-2,-1.693794E-1,1.0623574E-3,6.048373E-1,9.499142E-3,-1.2937523E-1,2.0258933E-1,2.540037E-2],"categories":[],"categories_nodes":[],"categories_segments":[],"categories_sizes":[],"default_left":[0,0,0,0,0,0,0,0,0],"id":25,"left_children":[1,3,-1,5,7,-1,-1,-1,-1],"loss_changes":[5.5145237E1,1.0983362E2,0E0,8.065751E1,1.1559799E1,0E0,0E0,0E0,0E0],"parents":[2147483647,0,0,1,1,3,3,4,4],"right_children":[2,4,-1,6,8,-1,-1,-1,-1],"split_conditions":[9.285238E2,2.9845914E2,-1.693794E-1,2.0228249E2,8.720408E2,9.499142E-3,-1.2937523E-1,2.0258933E-1,2.540037E-2],"split_indices":[1,1,0,1,1,0,0,0,0],"split_type":[0,0,0,0,0,0,0,0,0],"sum_hessian":[6.569129E3,6.410762E3,1.5836696E2,6.094803E3,3.1595898E2,5.692765E3,4.020378E2,2.7800336E2,3.7955647E1],"tree_param":{"num_deleted":"0","num_feature":"2","num_nodes":"9","size_leaf_vector":"1"}},{"base_weights":[-5.271004E-3,-1.682091E-1,2.7072437E-2,4.2198735E-1,-2.047251E-2,2.073523E-1,-1.814086E-1,-1.5610398E-1,2.292808E-2],"categories":[],"categories_nodes":[],"categories_segments":[],"categories_sizes":[],"default_left":[0,0,0,0,0,0,0,0,0],"id":26,"left_children":[1,-1,3,5,7,-1,-1,-1,-1],"loss_changes":[1.0782285E2,0E0,1.0650564E2,1.6887262E2,2.4529758E2,0E0,0E0,0E0,0E0],"parents":[2147483647,0,0,2,2,3,3,4,4],"right_children":[2,-1,4,6,8,-1,-1,-1,-1],"split_conditions":[1.746734E1,-1.682091E-1,2.5668823E1,6E0,5.9445705E1,2.073523E-1,-1.814086E-1,-1.5610398E-1,2.292808E-2],"split_indices":[1,0,1,0,1,0,0,0,0],"split_type":[0,0,0,0,0,0,0,0,0],"sum_hessian":[6.000188E3,3.2927597E2,5.6709116E3,6.08527E2,5.062385E3,4.823785E2,1.2614848E2,8.2128107E2,4.241104E3],"tree_param":{"num_deleted":"0","num_feature":"2","num_nodes":"9","size_leaf_vector":"1"}},{"base_weights":[-1.15654925E-2,6.3048534E-2,-3.0700687E-1,3.594705E-1,-3.667212E-2,-1.6577004E-1,1.20046005E-1,2.0914243E-3,3.1446698E-1,2.4534056E-2,-1.2760954E-1,1.8895556E-1,-1.5976202E-1],"categories":[],"categories_nodes":[],"categories_segments":[],"categories_sizes":[],"default_left":[0,0,0,0,0,0,0,0,0,0,0,0,0],"id":27,"left_children":[1,3,5,7,9,-1,11,-1,-1,-1,-1,-1,-1],"loss_changes":[1.15261215E2,1.2341025E2,1.1062214E2,2.5514679E2,1.4389626E2,0E0,1.2865807E2,0E0,0E0,0E0,0E0,0E0,0E0],"parents":[2147483647,0,0,1,1,2,2,3,3,4,4,6,6],"right_children":[2,4,6,8,10,-1,12,-1,-1,-1,-1,-1,-1],"split_conditions":[1.19789345E2,2E0,7E0,1E0,5.0175472E1,-1.6577004E-1,2.0228249E2,2.0914243E-3,3.1446698E-1,2.4534056E-2,-1.2760954E-1,1.8895556E-1,-1.5976202E-1],"split_indices":[1,0,0,0,1,0,1,0,0,0,0,0,0],"split_type":[0,0,0,0,0,0,0,0,0,0,0,0,0],"sum_hessian":[5.2267944E3,4.173547E3,1.0532471E3,1.0499479E3,3.123599E3,6.6853723E2,3.8470987E2,6.951731E2,3.547748E2,2.3946353E3,7.2896387E2,2.1600206E2,1.6870781E2],"tree_param":{"num_deleted":"0","num_feature":"2","num_nodes":"13","size_leaf_vector":"1"}},{"base_weights":[1.8183777E-2,3.0756826E-2,-1.658302E-1,5.351191E-3,5.573807E-1,9.669118E-3,-1.1869925E-1,-2.687906E-1,1.7419891E-1],"categories":[],"categories_nodes":[],"categories_segments":[],"categories_sizes":[],"default_left":[0,0,0,0,0,0,0,0,0],"id":28,"left_children":[1,3,-1,5,7,-1,-1,-1,-1],"loss_changes":[4.6105858E1,8.405765E1,0E0,6.4630356E1,1.0304169E1,0E0,0E0,0E0,0E0],"parents":[2147483647,0,0,1,1,3,3,4,4],"right_children":[2,4,-1,6,8,-1,-1,-1,-1],"split_conditions":[9.285238E2,2.9845914E2,-1.658302E-1,2.0228249E2,2E0,9.669118E-3,-1.1869925E-1,-2.687906E-1,1.7419891E-1],"split_indices":[1,1,0,1,0,0,0,0,0],"split_type":[0,0,0,0,0,0,0,0,0],"sum_hessian":[6.4193174E3,6.2819277E3,1.3738968E2,5.9937827E3,2.881447E2,5.6181313E3,3.756517E2,3.9522455E0,2.8419247E2],"tree_param":{"num_deleted":"0","num_feature":"2","num_nodes":"9","size_leaf_vector":"1"}},{"base_weights":[-9.809315E-3,-1.6489609E-1,1.8318761E-2,-2.0354916E-1,1.0368454E-1,-1.4058173E-1,2.1728341E-1,4.934148E-2,-6.6703E-2],"categories":[],"categories_nodes":[],"categories_segments":[],"categories_sizes":[],"default_left":[0,0,0,0,0,0,0,0,0],"id":29,"left_children":[1,-1,3,5,7,-1,-1,-1,-1],"loss_changes":[8.7137085E1,0E0,1.0333079E2,3.731429E2,7.811431E1,0E0,0E0,0E0,0E0],"parents":[2147483647,0,0,2,2,3,3,4,4],"right_children":[2,-1,4,6,8,-1,-1,-1,-1],"split_conditions":[1.746734E1,-1.6489609E-1,2E0,2.0228249E2,7E0,-1.4058173E-1,2.1728341E-1,4.934148E-2,-6.6703E-2],"split_indices":[1,0,0,1,0,0,0,0,0],"split_type":[0,0,0,0,0,0,0,0,0],"sum_hessian":[5.7367856E3,2.8318848E2,5.453597E3,1.5149131E3,3.9386838E3,1.1786871E3,3.3622595E2,3.3201467E3,6.185373E2],"tree_param":{"num_deleted":"0","num_feature":"2","num_nodes":"9","size_leaf_vector":"1"}},{"base_weights":[-1.0271197E-2,1.0785158E-1,-1.7999734E-1,3.2616168E-1,-1.4243944E-1,-6.262028E-1,-5.5768646E-2,5.8342535E-2,2.4854639E-1,1.7033891E-1,-9.285449E-2,-1.9697608E-1,-1.6611588E-1,5.9347507E-2,-8.5307695E-2],"categories":[],"categories_nodes":[],"categories_segments":[],"categories_sizes":[],"default_left":[0,0,0,0,0,0,0,0,0,0,0,0,0,0,0],"id":30,"left_children":[1,3,5,7,9,11,13,-1,-1,-1,-1,-1,-1,-1,-1],"loss_changes":[1.0043882E2,1.6145647E2,1.1392189E2,1.04230194E2,1.635625E2,6.222534E-1,9.333989E1,0E0,0E0,0E0,0E0,0E0,0E0,0E0,0E0],"parents":[2147483647,0,0,1,1,2,2,3,3,4,4,5,5,6,6],"right_children":[2,4,6,8,10,12,14,-1,-1,-1,-1,-1,-1,-1,-1],"split_conditions":[6.975118E1,5E0,1E0,4E0,1.2158756E1,1.002216E2,1.19789345E2,5.8342535E-2,2.4854639E-1,1.7033891E-1,-9.285449E-2,-1.9697608E-1,-1.6611588E-1,5.9347507E-2,-8.5307695E-2],"split_indices":[1,0,0,0,1,1,1,0,0,0,0,0,0,0,0],"split_type":[0,0,0,0,0,0,0,0,0,0,0,0,0,0,0],"sum_hessian":[5.0078184E3,2.9530059E3,2.0548125E3,1.5771089E3,1.375897E3,4.4661542E2,1.6081971E3,1.2506372E3,3.264717E2,2.6156964E2,1.1143274E3,3.0901974E2,1.3759566E2,7.624664E2,8.457308E2],"tree_param":{"num_deleted":"0","num_feature":"2","num_nodes":"15","size_leaf_vector":"1"}},{"base_weights":[1.8913623E-2,-1.5037543E-1,5.964529E-2,1.5555069E-1,-3.9221698E-1,7.538032E-2,-1.6420588E-1,9.27036E-2,-3.0057183E-1,-1.6062765E-1,-2.1875981E-2,1.57072E-2,1.4953186E-1],"categories":[],"categories_nodes":[],"categories_segments":[],"categories_sizes":[],"default_left":[0,0,0,0,0,0,0,0,0,0,0,0,0],"id":31,"left_children":[1,3,5,7,9,11,-1,-1,-1,-1,-1,-1,-1],"loss_changes":[4.339785E1,9.037103E1,4.849198E1,9.616209E1,3.1146515E1,4.8143246E1,0E0,0E0,0E0,0E0,0E0,0E0,0E0],"parents":[2147483647,0,0,1,1,2,2,3,3,4,4,5,5],"right_children":[2,4,6,8,10,12,-1,-1,-1,-1,-1,-1,-1],"split_conditions":[3.9517147E1,1.746734E1,9.285238E2,6E0,6E0,2.9845914E2,-1.6420588E-1,9.27036E-2,-3.0057183E-1,-1.6062765E-1,-2.1875981E-2,1.57072E-2,1.4953186E-1],"split_indices":[1,1,1,0,0,1,0,0,0,0,0,0,0],"split_type":[0,0,0,0,0,0,0,0,0,0,0,0,0],"sum_hessian":[6.291416E3,1.2196427E3,5.0717734E3,5.386345E2,6.810082E2,4.944475E3,1.2729828E2,4.7622702E2,6.2407497E1,4.69676E2,2.1133214E2,4.690349E3,2.5412611E2],"tree_param":{"num_deleted":"0","num_feature":"2","num_nodes":"13","size_leaf_vector":"1"}},{"base_weights":[-1.2188555E-2,-1.6221136E-1,1.2173599E-2,3.483378E-1,-3.570451E-2,-1.803847E-1,1.7888723E-1,-1.6782416E-1,1.6638866E-2],"categories":[],"categories_nodes":[],"categories_segments":[],"categories_sizes":[],"default_left":[0,0,0,0,0,0,0,0,0],"id":32,"left_children":[1,-1,3,5,7,-1,-1,-1,-1],"loss_changes":[7.138219E1,0E0,8.53172E1,1.5596335E2,2.2158112E2,0E0,0E0,0E0,0E0],"parents":[2147483647,0,0,2,2,3,3,4,4],"right_children":[2,-1,4,6,8,-1,-1,-1,-1],"split_conditions":[1.746734E1,-1.6221136E-1,2.6193632E1,5E0,5.9445705E1,-1.803847E-1,1.7888723E-1,-1.6782416E-1,1.6638866E-2],"split_indices":[1,0,1,0,1,0,0,0,0],"split_type":[0,0,0,0,0,0,0,0,0],"sum_hessian":[5.542397E3,2.4328761E2,5.2991094E3,6.5985144E2,4.6392583E3,1.3632468E2,5.2352673E2,6.870984E2,3.9521597E3],"tree_param":{"num_deleted":"0","num_feature":"2","num_nodes":"9","size_leaf_vector":"1"}},{"base_weights":[-1.0504559E-2,1.7693692E-1,-3.6644846E-2,-1.02310196E-1,1.8882336E-1,5.5683577E-3,-1.9530678E-1,2.3542404E-1,-3.7619848E-2],"categories":[],"categories_nodes":[],"categories_segments":[],"categories_sizes":[],"default_left":[0,0,0,0,0,0,0,0,0],"id":33,"left_children":[1,-1,3,5,7,-1,-1,-1,-1],"loss_changes":[7.4837E1,0E0,6.76768E1,2.3477809E2,1.9316829E2,0E0,0E0,0E0,0E0],"parents":[2147483647,0,0,2,2,3,3,4,4],"right_children":[2,-1,4,6,8,-1,-1,-1,-1],"split_conditions":[1.1414994E1,1.7693692E-1,6E0,5E0,3.0118732E1,5.5683577E-3,-1.9530678E-1,2.3542404E-1,-3.7619848E-2],"split_indices":[1,0,0,0,1,0,0,0,0],"split_type":[0,0,0,0,0,0,0,0,0],"sum_hessian":[4.7667812E3,1.9801173E2,4.5687695E3,3.538704E3,1.0300657E3,2.9006987E3,6.380052E2,3.551074E2,6.749583E2],"tree_param":{"num_deleted":"0","num_feature":"2","num_nodes":"9","size_leaf_vector":"1"}},{"base_weights":[1.806927E-2,-1.6337933E-1,2.9599978E-2,4.6727604E-1,1.2806574E-2,1.5748067E-1,-2.32459E-1,-1.0086687E-1,1.4996696E-2],"categories":[],"categories_nodes":[],"categories_segments":[],"categories_sizes":[],"default_left":[0,0,0,0,0,0,0,0,0],"id":34,"left_children":[1,-1,3,5,7,-1,-1,-1,-1],"loss_changes":[3.9755566E1,0E0,4.4116962E1,1.6291958E1,7.5057686E1,0E0,0E0,0E0,0E0],"parents":[2147483647,0,0,2,2,3,3,4,4],"right_children":[2,-1,4,6,8,-1,-1,-1,-1],"split_conditions":[1.1414994E1,-1.6337933E-1,1.5592218E1,6E0,3.0118732E1,1.5748067E-1,-2.32459E-1,-1.0086687E-1,1.4996696E-2],"split_indices":[1,0,1,0,1,0,0,0,0],"split_type":[0,0,0,0,0,0,0,0,0],"sum_hessian":[6.124116E3,1.2205263E2,6.002064E3,2.2079503E2,5.7812686E3,2.1155228E2,9.242759E0,5.558153E2,5.2254536E3],"tree_param":{"num_deleted":"0","num_feature":"2","num_nodes":"9","size_leaf_vector":"1"}},{"base_weights":[-1.13650635E-2,-2.084812E-1,5.9121072E-2,-4.2646036E-1,1.9617313E-1,-1.6719672E-1,1.854463E-1,2.0848792E-2,-2.7095655E-1,-1.6551222E-1,3.4577403E-2,2.1903533E-1,-2.880423E-2],"categories":[],"categories_nodes":[],"categories_segments":[],"categories_sizes":[],"default_left":[0,0,0,0,0,0,0,0,0,0,0,0,0],"id":35,"left_children":[1,3,5,7,-1,9,11,-1,-1,-1,-1,-1,-1],"loss_changes":[7.408818E1,2.6430835E2,1.1233058E2,2.6528708E2,0E0,1.5294112E2,3.8660284E2,0E0,0E0,0E0,0E0,0E0,0E0],"parents":[2147483647,0,0,1,1,2,2,3,3,5,5,6,6],"right_children":[2,4,6,8,-1,10,12,-1,-1,-1,-1,-1,-1],"split_conditions":[2E0,2.0228249E2,6.0340588E1,1E0,1.9617313E-1,5E0,4E0,2.0848792E-2,-2.7095655E-1,-1.6551222E-1,3.4577403E-2,2.1903533E-1,-2.880423E-2],"split_indices":[0,1,1,0,0,0,0,0,0,0,0,0,0],"split_type":[0,0,0,0,0,0,0,0,0,0,0,0,0],"sum_hessian":[5.330517E3,1.4035365E3,3.9269805E3,1.1207579E3,2.8277863E2,1.4066232E3,2.5203574E3,5.497199E2,5.7103796E2,5.952904E2,8.1133276E2,8.581344E2,1.662223E3],"tree_param":{"num_deleted":"0","num_feature":"2","num_nodes":"13","size_leaf_vector":"1"}},{"base_weights":[-1.5275663E-2,5.3773063E-1,-4.1026197E-2,1.7063102E-1,1.16984405E-1,-1.4434567E-2,-5.113116E-1,-1.911195E-2,1.9970717E-1,-8.47232E-2,-1.572977E-1],"categories":[],"categories_nodes":[],"categories_segments":[],"categories_sizes":[],"default_left":[0,0,0,0,0,0,0,0,0,0,0],"id":36,"left_children":[1,3,5,-1,-1,7,9,-1,-1,-1,-1],"loss_changes":[6.52881E1,7.139435E-1,5.477028E1,0E0,0E0,1.3900749E2,5.5015564E-1,0E0,0E0,0E0,0E0],"parents":[2147483647,0,0,1,1,2,2,5,5,6,6],"right_children":[2,4,6,-1,-1,8,10,-1,-1,-1,-1],"split_conditions":[1.2158756E1,1.1414994E1,1.9868927E2,1.7063102E-1,1.16984405E-1,7E0,2.0228249E2,-1.911195E-2,1.9970717E-1,-8.47232E-2,-1.572977E-1],"split_indices":[1,1,1,0,0,0,1,0,0,0,0],"split_type":[0,0,0,0,0,0,0,0,0,0,0],"sum_hessian":[4.582222E3,2.0299147E2,4.379231E3,1.6540254E2,3.7588924E1,4.145841E3,2.3339008E2,3.8666277E3,2.7921304E2,1.3776668E1,2.1961342E2],"tree_param":{"num_deleted":"0","num_feature":"2","num_nodes":"11","size_leaf_vector":"1"}},{"base_weights":[1.9171122E-2,3.0103117E-2,-1.6215356E-1,1.3012302E-2,4.5339257E-1,9.76343E-3,-8.9617446E-2,1.703158E-1,-4.302489E-2],"categories":[],"categories_nodes":[],"categories_segments":[],"categories_sizes":[],"default_left":[0,0,0,0,0,0,0,0,0],"id":37,"left_children":[1,3,-1,5,7,-1,-1,-1,-1],"loss_changes":[3.6773247E1,4.2629196E1,0E0,3.4508286E1,1.5685169E1,0E0,0E0,0E0,0E0],"parents":[2147483647,0,0,1,1,3,3,4,4],"right_children":[2,4,-1,6,8,-1,-1,-1,-1],"split_conditions":[9.285238E2,2.9845914E2,-1.6215356E-1,1.9868927E2,8.720408E2,9.76343E-3,-8.9617446E-2,1.703158E-1,-4.302489E-2],"split_indices":[1,1,0,1,1,0,0,0,0],"split_type":[0,0,0,0,0,0,0,0,0],"sum_hessian":[6.006562E3,5.8924146E3,1.1414724E2,5.664725E3,2.2768929E2,5.331562E3,3.3316324E2,1.9112538E2,3.65639E1],"tree_param":{"num_deleted":"0","num_feature":"2","num_nodes":"9","size_leaf_vector":"1"}},{"base_weights":[-8.745473E-3,-1.1906832E-1,9.1584444E-2,-5.6105953E-1,1.1359225E-2,1.9646943E-1,2.5499098E-2,-1.7014904E-1,-9.204874E-2,4.7812965E-2,-1.7882355E-1,-1.0059422E-1,5.615541E-2],"categories":[],"categories_nodes":[],"categories_segments":[],"categories_sizes":[],"default_left":[0,0,0,0,0,0,0,0,0,0,0,0,0],"id":38,"left_children":[1,3,5,7,9,-1,11,-1,-1,-1,-1,-1,-1],"loss_changes":[5.7167553E1,1.4181213E2,1.0068002E2,6.9577026E-1,1.7095837E2,0E0,1.4135701E2,0E0,0E0,0E0,0E0,0E0,0E0],"parents":[2147483647,0,0,1,1,2,2,3,3,4,4,6,6],"right_children":[2,4,6,8,10,-1,12,-1,-1,-1,-1,-1,-1],"split_conditions":[1.002216E2,3E0,1E0,9.931893E1,6E0,1.9646943E-1,2E0,-1.7014904E-1,-9.204874E-2,4.7812965E-2,-1.7882355E-1,-1.0059422E-1,5.615541E-2],"split_indices":[1,0,0,1,0,0,0,0,0,0,0,0,0],"split_type":[0,0,0,0,0,0,0,0,0,0,0,0,0],"sum_hessian":[5.162817E3,2.458863E3,2.703954E3,5.5950793E2,1.8993551E3,2.8297305E2,2.4209812E3,5.4518744E2,1.432048E1,1.5278049E3,3.7155014E2,7.4883264E2,1.6721484E3],"tree_param":{"num_deleted":"0","num_feature":"2","num_nodes":"13","size_leaf_vector":"1"}},{"base_weights":[-1.1413251E-2,4.563161E-2,-2.733502E-1,3.233571E-1,-5.661821E-2,-1.635084E-1,2.0737839E-1,1.4322811E-2,2.5164303E-1,3.543672E-2,-9.305544E-2,1.7950164E-1,-1.5533894E-1],"categories":[],"categories_nodes":[],"categories_segments":[],"categories_sizes":[],"default_left":[0,0,0,0,0,0,0,0,0,0,0,0,0],"id":39,"left_children":[1,3,5,7,9,-1,11,-1,-1,-1,-1,-1,-1],"loss_changes":[6.6607124E1,1.0397127E2,1.0422693E2,1.399259E2,1.1862524E2,0E0,8.212302E1,0E0,0E0,0E0,0E0,0E0,0E0],"parents":[2147483647,0,0,1,1,2,2,3,3,4,4,6,6],"right_children":[2,4,6,8,10,-1,12,-1,-1,-1,-1,-1,-1],"split_conditions":[1.19789345E2,2E0,7E0,1E0,4.0116074E1,-1.635084E-1,2.0228249E2,1.4322811E-2,2.5164303E-1,3.543672E-2,-9.305544E-2,1.7950164E-1,-1.5533894E-1],"split_indices":[1,0,0,0,1,0,1,0,0,0,0,0,0],"split_type":[0,0,0,0,0,0,0,0,0,0,0,0,0],"sum_hessian":[4.4558296E3,3.659653E3,7.961767E2,9.84216E2,2.675437E3,5.0860895E2,2.8756778E2,6.42019E2,3.4219702E2,1.5842296E3,1.0912075E3,1.8695204E2,1.00615746E2],"tree_param":{"num_deleted":"0","num_feature":"2","num_nodes":"13","size_leaf_vector":"1"}},{"base_weights":[1.6533751E-2,2.5670206E-2,-1.5932669E-1,1.0319691E-2,4.3180755E-1,8.670237E-3,-8.587398E-2,1.6397558E-1,-3.0587325E-2],"categories":[],"categories_nodes":[],"categories_segments":[],"categories_sizes":[],"default_left":[0,0,0,0,0,0,0,0,0],"id":40,"left_children":[1,3,-1,5,7,-1,-1,-1,-1],"loss_changes":[2.940706E1,3.6026245E1,0E0,3.0701153E1,1.2949268E1,0E0,0E0,0E0,0E0],"parents":[2147483647,0,0,1,1,3,3,4,4],"right_children":[2,4,-1,6,8,-1,-1,-1,-1],"split_conditions":[9.285238E2,2.9845914E2,-1.5932669E-1,1.9868927E2,8.720408E2,8.670237E-3,-8.587398E-2,1.6397558E-1,-3.0587325E-2],"split_indices":[1,1,0,1,1,0,0,0,0],"split_type":[0,0,0,0,0,0,0,0,0],"sum_hessian":[5.8737725E3,5.7783213E3,9.5451515E1,5.568864E3,2.0945741E2,5.2413726E3,3.2749106E2,1.7236833E2,3.7089073E1],"tree_param":{"num_deleted":"0","num_feature":"2","num_nodes":"9","size_leaf_vector":"1"}},{"base_weights":[-9.353136E-3,-1.5824951E-1,1.0479566E-2,-1.7270373E-1,7.705194E-2,-1.121621E-1,1.8876599E-1,7.8219816E-2,-6.7511024E-3],"categories":[],"categories_nodes":[],"categories_segments":[],"categories_sizes":[],"default_left":[0,0,0,0,0,0,0,0,0],"id":41,"left_children":[1,-1,3,5,7,-1,-1,-1,-1],"loss_changes":[5.083665E1,0E0,5.812354E1,2.0518764E2,6.3929077E1,0E0,0E0,0E0,0E0],"parents":[2147483647,0,0,2,2,3,3,4,4],"right_children":[2,-1,4,6,8,-1,-1,-1,-1],"split_conditions":[1.746734E1,-1.5824951E-1,2E0,2.0228249E2,4E0,-1.121621E-1,1.8876599E-1,7.8219816E-2,-6.7511024E-3],"split_indices":[1,0,0,1,0,0,0,0,0],"split_type":[0,0,0,0,0,0,0,0,0],"sum_hessian":[4.945481E3,1.8137283E2,4.764108E3,1.269448E3,3.4946602E3,1.01528754E3,2.5416045E2,1.2277795E3,2.2668806E3],"tree_param":{"num_deleted":"0","num_feature":"2","num_nodes":"9","size_leaf_vector":"1"}},{"base_weights":[-9.953535E-3,9.281726E-2,-1.6267195E-1,7.053384E-1,-8.155976E-4,-2.7855873E-1,3.3211145E-1,2.1468386E-1,1.6035092E-1,1.575514E-2,-1.6370928E-1,-1.8113509E-1,-4.6840794E-2,1.8917046E-1,-1.5429224E-1],"categories":[],"categories_nodes":[],"categories_segments":[],"categories_sizes":[],"default_left":[0,0,0,0,0,0,0,0,0,0,0,0,0,0,0],"id":42,"left_children":[1,3,5,7,9,11,13,-1,-1,-1,-1,-1,-1,-1,-1],"loss_changes":[6.706558E1,1.4649373E2,9.864752E1,2.119751E-1,6.4442856E1,5.5375137E1,8.283887E1,0E0,0E0,0E0,0E0,0E0,0E0,0E0,0E0],"parents":[2147483647,0,0,1,1,2,2,3,3,4,4,5,5,6,6],"right_children":[2,4,6,8,10,12,14,-1,-1,-1,-1,-1,-1,-1,-1],"split_conditions":[6.975118E1,2E0,7E0,1E0,5.0175472E1,1E0,2.0228249E2,2.1468386E-1,1.6035092E-1,1.575514E-2,-1.6370928E-1,-1.8113509E-1,-4.6840794E-2,1.8917046E-1,-1.5429224E-1],"split_indices":[1,0,0,0,1,0,1,0,0,0,0,0,0,0,0],"split_type":[0,0,0,0,0,0,0,0,0,0,0,0,0,0,0],"sum_hessian":[4.2710938E3,2.5532764E3,1.7178174E3,3.3768674E2,2.2155896E3,1.3921815E3,3.2563583E2,3.1552167E2,2.2165068E1,2.018886E3,1.9670375E2,3.7965875E2,1.01252277E3,2.409346E2,8.4701225E1],"tree_param":{"num_deleted":"0","num_feature":"2","num_nodes":"15","size_leaf_vector":"1"}},{"base_weights":[1.5906258E-2,-1.4716464E-1,4.468656E-2,1.4228216E-1,-4.4560003E-1,5.473683E-2,-1.5760335E-1,9.1006294E-2,-2.3375204E-1,-1.6328096E-1,-2.1094091E-2,1.2166037E-2,1.2082419E-1],"categories":[],"categories_nodes":[],"categories_segments":[],"categories_sizes":[],"default_left":[0,0,0,0,0,0,0,0,0,0,0,0,0],"id":43,"left_children":[1,3,5,7,9,11,-1,-1,-1,-1,-1,-1,-1],"loss_changes":[2.702343E1,7.467907E1,2.8064964E1,6.5431595E1,1.5719093E1,2.3725063E1,0E0,0E0,0E0,0E0,0E0,0E0,0E0],"parents":[2147483647,0,0,1,1,2,2,3,3,4,4,5,5],"right_children":[2,4,6,8,10,12,-1,-1,-1,-1,-1,-1,-1],"split_conditions":[3.436607E1,1.8099895E1,9.285238E2,6E0,3.0118732E1,2.9845914E2,-1.5760335E-1,9.1006294E-2,-2.3375204E-1,-1.6328096E-1,-2.1094091E-2,1.2166037E-2,1.2082419E-1],"split_indices":[1,1,1,0,1,1,0,0,0,0,0,0,0],"split_type":[0,0,0,0,0,0,0,0,0,0,0,0,0],"sum_hessian":[5.755559E3,8.627954E2,4.8927637E3,4.3825934E2,4.245361E2,4.808882E3,8.388187E1,3.7362054E2,6.463878E1,3.357982E2,8.8737915E1,4.6216406E3,1.8724123E2],"tree_param":{"num_deleted":"0","num_feature":"2","num_nodes":"13","size_leaf_vector":"1"}},{"base_weights":[-1.0213276E-2,-1.5660529E-1,6.8778205E-3,-6.402022E-2,1.6077478E-1,-1.6647744E-1,1.2150316E-2,2.30573E-1,-1.3798258E-2],"categories":[],"categories_nodes":[],"categories_segments":[],"categories_sizes":[],"default_left":[0,0,0,0,0,0,0,0,0],"id":44,"left_children":[1,-1,3,5,7,-1,-1,-1,-1],"loss_changes":[4.2006924E1,0E0,5.0721092E1,1.6331978E2,1.8428876E2,0E0,0E0,0E0,0E0],"parents":[2147483647,0,0,2,2,3,3,4,4],"right_children":[2,-1,4,6,8,-1,-1,-1,-1],"split_conditions":[1.746734E1,-1.5660529E-1,5E0,5.9445705E1,6E0,-1.6647744E-1,1.2150316E-2,2.30573E-1,-1.3798258E-2],"split_indices":[1,0,0,1,0,0,0,0,0],"split_type":[0,0,0,0,0,0,0,0,0],"sum_hessian":[4.8008643E3,1.541838E2,4.64668E3,3.1815647E3,1.4651155E3,5.577366E2,2.6238281E3,3.712122E2,1.0939033E3],"tree_param":{"num_deleted":"0","num_feature":"2","num_nodes":"9","size_leaf_vector":"1"}},{"base_weights":[-8.597394E-3,4.3144483E-2,-2.828091E-1,2.9868516E-1,-5.03042E-2,-5.369347E-1,2.0597965E-1,1.0242952E-2,2.3271765E-1,2.9397141E-2,-8.1546605E-2,-9.9447444E-2,-1.6181512E-1,1.6807908E-1,-1.531783E-1],"categories":[],"categories_nodes":[],"categories_segments":[],"categories_sizes":[],"default_left":[0,0,0,0,0,0,0,0,0,0,0,0,0,0,0],"id":45,"left_children":[1,3,5,7,9,11,13,-1,-1,-1,-1,-1,-1,-1,-1],"loss_changes":[5.6868393E1,8.053893E1,7.914131E1,1.1393854E2,8.1164604E1,3.1959534E-2,5.5721607E1,0E0,0E0,0E0,0E0,0E0,0E0,0E0,0E0],"parents":[2147483647,0,0,1,1,2,2,3,3,4,4,5,5,6,6],"right_children":[2,4,6,8,10,12,14,-1,-1,-1,-1,-1,-1,-1,-1],"split_conditions":[1.19789345E2,2E0,7E0,1E0,4.0116074E1,1.2073226E2,2.0228249E2,1.0242952E-2,2.3271765E-1,2.9397141E-2,-8.1546605E-2,-9.9447444E-2,-1.6181512E-1,1.6807908E-1,-1.531783E-1],"split_indices":[1,0,0,0,1,1,1,0,0,0,0,0,0,0,0],"split_type":[0,0,0,0,0,0,0,0,0,0,0,0,0,0,0],"sum_hessian":[4.006279E3,3.371031E3,6.3524786E2,9.02071E2,2.46896E3,4.178865E2,2.1736137E2,5.809678E2,3.2110324E2,1.4792421E3,9.89718E2,6.529072E0,4.1135742E2,1.4559525E2,7.176613E1],"tree_param":{"num_deleted":"0","num_feature":"2","num_nodes":"15","size_leaf_vector":"1"}},{"base_weights":[1.3234473E-2,-4.534539E-1,2.3695473E-2,-1.5784822E-1,-8.113184E-2,5.254169E-1,1.0023553E-2,1.7743705E-1,-1.8128671E-1,-8.15421E-2,1.061546E-2],"categories":[],"categories_nodes":[],"categories_segments":[],"categories_sizes":[],"default_left":[0,0,0,0,0,0,0,0,0,0,0],"id":46,"left_children":[1,3,5,-1,-1,7,9,-1,-1,-1,-1],"loss_changes":[2.7251064E1,1.4861336E0,3.743617E1,0E0,0E0,1.1158424E1,3.7995937E1,0E0,0E0,0E0,0E0],"parents":[2147483647,0,0,1,1,2,2,5,5,6,6],"right_children":[2,4,6,-1,-1,8,10,-1,-1,-1,-1],"split_conditions":[1.2158756E1,1.1414994E1,1.5592218E1,-1.5784822E-1,-8.113184E-2,6E0,3.0118732E1,1.7743705E-1,-1.8128671E-1,-8.15421E-2,1.061546E-2],"split_indices":[1,1,1,0,0,0,1,0,0,0,0],"split_type":[0,0,0,0,0,0,0,0,0,0,0],"sum_hessian":[5.5787153E3,1.21379074E2,5.4573364E3,8.552662E1,3.5852455E1,1.4377469E2,5.3135615E3,1.3628429E2,7.490407E0,4.3787762E2,4.875684E3],"tree_param":{"num_deleted":"0","num_feature":"2","num_nodes":"11","size_leaf_vector":"1"}},{"base_weights":[-8.524518E-3,-1.7489389E-1,4.8502967E-2,-3.4206736E-1,5.986364E-1,2.5041443E-1,-5.8271967E-2,3.192983E-2,-2.2836076E-1,1.7664757E-1,2.6564938E-1,-1.6071934E-1,1.7913343E-1,-1.11737266E-1,2.7798519E-2],"categories":[],"categories_nodes":[],"categories_segments":[],"categories_sizes":[],"default_left":[0,0,0,0,0,0,0,0,0,0,0,0,0,0,0],"id":47,"left_children":[1,3,5,7,9,11,13,-1,-1,-1,-1,-1,-1,-1,-1],"loss_changes":[4.3851597E1,1.5277702E2,7.422574E1,1.8257843E2,6.9740295E-2,3.24893E2,1.06844345E2,0E0,0E0,0E0,0E0,0E0,0E0,0E0,0E0],"parents":[2147483647,0,0,1,1,2,2,3,3,4,4,5,5,6,6],"right_children":[2,4,6,8,10,12,14,-1,-1,-1,-1,-1,-1,-1,-1],"split_conditions":[2E0,2.0228249E2,4E0,1E0,2.9845914E2,6.0340588E1,5E0,3.192983E-2,-2.2836076E-1,1.7664757E-1,2.6564938E-1,-1.6071934E-1,1.7913343E-1,-1.11737266E-1,2.7798519E-2],"split_indices":[0,1,0,0,1,1,0,0,0,0,0,0,0,0,0],"split_type":[0,0,0,0,0,0,0,0,0,0,0,0,0,0,0],"sum_hessian":[4.620083E3,1.1788611E3,3.4412222E3,9.6982306E2,2.0903801E2,1.1898569E3,2.2513652E3,4.688602E2,5.0096286E2,2.0507666E2,3.9613378E0,3.6397888E2,8.25878E2,7.301038E2,1.5212615E3],"tree_param":{"num_deleted":"0","num_feature":"2","num_nodes":"15","size_leaf_vector":"1"}},{"base_weights":[-1.2694889E-2,7.7006586E-2,-1.5351069E-1,6.685342E-1,-1.2516661E-2,-2.6356998E-1,3.5159057E-1,2.0270996E-1,1.5234835E-1,9.703762E-3,-1.604439E-1,-1.7539515E-1,-4.3445613E-2,1.8633708E-1,-1.4406429E-1],"categories":[],"categories_nodes":[],"categories_segments":[],"categories_sizes":[],"default_left":[0,0,0,0,0,0,0,0,0,0,0,0,0,0,0],"id":48,"left_children":[1,3,5,7,9,11,13,-1,-1,-1,-1,-1,-1,-1,-1],"loss_changes":[4.7891556E1,1.2266313E2,8.210901E1,7.4920654E-3,4.7178158E1,4.612599E1,5.9573235E1,0E0,0E0,0E0,0E0,0E0,0E0,0E0,0E0],"parents":[2147483647,0,0,1,1,2,2,3,3,4,4,5,5,6,6],"right_children":[2,4,6,8,10,12,14,-1,-1,-1,-1,-1,-1,-1,-1],"split_conditions":[6.975118E1,2E0,7E0,1E0,5.0175472E1,1E0,1.9868927E2,2.0270996E-1,1.5234835E-1,9.703762E-3,-1.604439E-1,-1.7539515E-1,-4.3445613E-2,1.8633708E-1,-1.4406429E-1],"split_indices":[1,0,0,0,1,0,1,0,0,0,0,0,0,0,0],"split_type":[0,0,0,0,0,0,0,0,0,0,0,0,0,0,0],"sum_hessian":[3.789537E3,2.3151868E3,1.4743505E3,3.034781E2,2.0117086E3,1.2109648E3,2.633856E2,2.8745627E2,1.602181E1,1.8534453E3,1.5826323E2,3.258922E2,8.8507263E2,1.991179E2,6.426769E1],"tree_param":{"num_deleted":"0","num_feature":"2","num_nodes":"15","size_leaf_vector":"1"}},{"base_weights":[1.4680605E-2,2.2051645E-2,-1.5600348E-1,-4.2649052E-1,3.125552E-2,-1.558865E-1,-6.711542E-2,1.1293552E-1,3.528336E-3],"categories":[],"categories_nodes":[],"categories_segments":[],"categories_sizes":[],"default_left":[0,0,0,0,0,0,0,0,0],"id":49,"left_children":[1,3,-1,5,7,-1,-1,-1,-1],"loss_changes":[2.1503864E1,2.2223797E1,0E0,1.9278755E0,3.5478134E1,0E0,0E0,0E0,0E0],"parents":[2147483647,0,0,1,1,3,3,4,4],"right_children":[2,4,-1,6,8,-1,-1,-1,-1],"split_conditions":[9.285238E2,1.2158756E1,-1.5600348E-1,1.1414994E1,1.746734E1,-1.558865E-1,-6.711542E-2,1.1293552E-1,3.528336E-3],"split_indices":[1,1,0,1,1,0,0,0,0],"split_type":[0,0,0,0,0,0,0,0,0],"sum_hessian":[5.452211E3,5.3790166E3,7.319409E1,1.07243996E2,5.2717725E3,7.241981E1,3.482419E1,2.8082187E2,4.9909507E3],"tree_param":{"num_deleted":"0","num_feature":"2","num_nodes":"9","size_leaf_vector":"1"}},{"base_weights":[-7.138237E-3,-1.1017025E-1,8.757677E-2,-5.60067E-1,1.2295042E-2,1.8799742E-1,2.175328E-2,-1.7030045E-1,-8.0078065E-2,4.578887E-2,-1.7382072E-1,-1.0066727E-1,5.1413465E-2],"categories":[],"categories_nodes":[],"categories_segments":[],"categories_sizes":[],"default_left":[0,0,0,0,0,0,0,0,0,0,0,0,0],"id":50,"left_children":[1,3,5,7,9,-1,11,-1,-1,-1,-1,-1,-1],"loss_changes":[4.3669186E1,1.18096756E2,8.2721375E1,8.703613E-1,1.4006169E2,0E0,1.1120202E2,0E0,0E0,0E0,0E0,0E0,0E0],"parents":[2147483647,0,0,1,1,2,2,3,3,4,4,6,6],"right_children":[2,4,6,8,10,-1,12,-1,-1,-1,-1,-1,-1],"split_conditions":[1.002216E2,3E0,1E0,9.931893E1,6E0,1.8799742E-1,2E0,-1.7030045E-1,-8.0078065E-2,4.578887E-2,-1.7382072E-1,-1.0066727E-1,5.1413465E-2],"split_indices":[1,0,0,1,0,0,0,0,0,0,0,0,0],"split_type":[0,0,0,0,0,0,0,0,0,0,0,0,0],"sum_hessian":[4.472919E3,2.1423186E3,2.3306006E3,4.5761606E2,1.6847025E3,2.5268019E2,2.0779204E3,4.4513712E2,1.2478936E1,1.3623356E3,3.2236685E2,6.129431E2,1.4649774E3],"tree_param":{"num_deleted":"0","num_feature":"2","num_nodes":"13","size_leaf_vector":"1"}},{"base_weights":[-9.9923285E-3,3.764069E-2,-2.932081E-1,2.8012136E-1,-4.818709E-2,-5.3382874E-1,2.1328187E-1,9.781828E-3,2.143412E-1,9.275327E-3,-1.0657944E-1,-8.819015E-2,-1.6101022E-1,1.6090728E-1,-1.5086433E-1],"categories":[],"categories_nodes":[],"categories_segments":[],"categories_sizes":[],"default_left":[0,0,0,0,0,0,0,0,0,0,0,0,0,0,0],"id":51,"left_children":[1,3,5,7,9,11,13,-1,-1,-1,-1,-1,-1,-1,-1],"loss_changes":[4.864481E1,6.425712E1,6.338271E1,8.675098E1,5.541407E1,8.4869385E-2,3.9120735E1,0E0,0E0,0E0,0E0,0E0,0E0,0E0,0E0],"parents":[2147483647,0,0,1,1,2,2,3,3,4,4,5,5,6,6],"right_children":[2,4,6,8,10,12,14,-1,-1,-1,-1,-1,-1,-1,-1],"split_conditions":[1.19789345E2,2E0,7E0,1E0,5.0175472E1,1.2073226E2,2.0228249E2,9.781828E-3,2.143412E-1,9.275327E-3,-1.0657944E-1,-8.819015E-2,-1.6101022E-1,1.6090728E-1,-1.5086433E-1],"split_indices":[1,0,0,0,1,1,1,0,0,0,0,0,0,0,0],"split_type":[0,0,0,0,0,0,0,0,0,0,0,0,0,0,0],"sum_hessian":[3.6040596E3,3.0859175E3,5.18142E2,8.061418E2,2.279776E3,3.5122833E2,1.6691373E2,5.14199E2,2.919428E2,1.8135062E3,4.6626953E2,5.3785863E0,3.4584973E2,1.1519706E2,5.1716667E1],"tree_param":{"num_deleted":"0","num_feature":"2","num_nodes":"15","size_leaf_vector":"1"}},{"base_weights":[1.3398923E-2,-1.5432289E-1,1.9791929E-2,2.8142768E-1,3.5524261E-3,1.516162E-1,-2.1941264E-1,-1.5244983E-1,9.811956E-3],"categories":[],"categories_nodes":[],"categories_segments":[],"categories_sizes":[],"default_left":[0,0,0,0,0,0,0,0,0],"id":52,"left_children":[1,-1,3,5,7,-1,-1,-1,-1],"loss_changes":[1.783271E1,0E0,2.2176311E1,6.955886E1,7.3350815E1,0E0,0E0,0E0,0E0],"parents":[2147483647,0,0,2,2,3,3,4,4],"right_children":[2,-1,4,6,8,-1,-1,-1,-1],"split_conditions":[1.1414994E1,-1.5432289E-1,1.746734E1,6E0,3.0118732E1,1.516162E-1,-2.1941264E-1,-1.5244983E-1,9.811956E-3],"split_indices":[1,0,1,0,1,0,0,0,0],"split_type":[0,0,0,0,0,0,0,0,0],"sum_hessian":[5.28087E3,6.2247326E1,5.2186226E3,3.0403085E2,4.914592E3,2.4938559E2,5.464525E1,2.6402054E2,4.6505713E3],"tree_param":{"num_deleted":"0","num_feature":"2","num_nodes":"9","size_leaf_vector":"1"}},{"base_weights":[-8.073406E-3,2.0615712E-2,-3.1114426E-1,-2.2501739E-2,5.7531416E-1,-6.5601104E-1,4.2198503E-1,-9.893017E-2,2.0399172E-2,1.3224791E-1,1.7636423E-1,-2.2401758E-1,-1.6531482E-1,5.3574245E-2,1.574203E-1],"categories":[],"categories_nodes":[],"categories_segments":[],"categories_sizes":[],"default_left":[0,0,0,0,0,0,0,0,0,0,0,0,0,0,0],"id":53,"left_children":[1,3,5,7,9,11,13,-1,-1,-1,-1,-1,-1,-1,-1],"loss_changes":[3.7429585E1,9.407471E1,9.439575E1,1.01522064E2,2.2029877E-1,2.002777E0,2.8999367E0,0E0,0E0,0E0,0E0,0E0,0E0,0E0,0E0],"parents":[2147483647,0,0,1,1,2,2,3,3,4,4,5,5,6,6],"right_children":[2,4,6,8,10,12,14,-1,-1,-1,-1,-1,-1,-1,-1],"split_conditions":[7E0,1.9868927E2,8.720408E2,2E0,2.0228249E2,2.9845914E2,9.285238E2,-9.893017E-2,2.0399172E-2,1.3224791E-1,1.7636423E-1,-2.2401758E-1,-1.6531482E-1,5.3574245E-2,1.574203E-1],"split_indices":[0,1,1,0,1,1,1,0,0,0,0,0,0,0,0],"split_type":[0,0,0,0,0,0,0,0,0,0,0,0,0,0,0],"sum_hessian":[4.3030693E3,3.9318105E3,3.7125882E2,3.6491191E3,2.8269144E2,2.525592E2,1.18699615E2,8.296424E2,2.8194768E3,2.7240572E1,2.5545088E2,1.321945E2,1.203647E2,3.6046524E1,8.265308E1],"tree_param":{"num_deleted":"0","num_feature":"2","num_nodes":"15","size_leaf_vector":"1"}},{"base_weights":[-1.0325333E-2,3.2730903E-2,-3.0110818E-1,1.3283943E-1,-1.380094E-1,-5.2892655E-1,1.9923368E-1,9.144365E-3,1.9649449E-1,-1.10184334E-1,4.2963263E-2,-8.37402E-2,-1.596638E-1,1.6141418E-1,-1.4078821E-1],"categories":[],"categories_nodes":[],"categories_segments":[],"categories_sizes":[],"default_left":[0,0,0,0,0,0,0,0,0,0,0,0,0,0,0],"id":54,"left_children":[1,3,5,7,9,11,13,-1,-1,-1,-1,-1,-1,-1,-1],"loss_changes":[4.2848873E1,5.0975437E1,5.0418995E1,1.0044992E2,7.113008E1,1.00624084E-1,3.1697412E1,0E0,0E0,0E0,0E0,0E0,0E0,0E0,0E0],"parents":[2147483647,0,0,1,1,2,2,3,3,4,4,5,5,6,6],"right_children":[2,4,6,8,10,12,14,-1,-1,-1,-1,-1,-1,-1,-1],"split_conditions":[1.19789345E2,5E0,7E0,4E0,6E0,1.2073226E2,1.9868927E2,9.144365E-3,1.9649449E-1,-1.10184334E-1,4.2963263E-2,-8.37402E-2,-1.596638E-1,1.6141418E-1,-1.4078821E-1],"split_indices":[1,0,0,0,0,1,1,0,0,0,0,0,0,0,0],"split_type":[0,0,0,0,0,0,0,0,0,0,0,0,0,0,0],"sum_hessian":[3.4206423E3,2.9802446E3,4.4039758E2,1.8788555E3,1.1013892E3,3.025718E2,1.3782578E2,1.5717882E3,3.070673E2,6.065657E2,4.9482352E2,5.0446267E0,2.975272E2,9.159837E1,4.622739E1],"tree_param":{"num_deleted":"0","num_feature":"2","num_nodes":"15","size_leaf_vector":"1"}},{"base_weights":[1.3059879E-2,-4.1024196E-1,2.0611059E-2,-1.5291612E-1,-7.501785E-2,3.341446E-1,3.8257162E-3,1.8140656E-1,-2.014509E-1,-1.572587E-1,8.8207675E-3],"categories":[],"categories_nodes":[],"categories_segments":[],"categories_sizes":[],"default_left":[0,0,0,0,0,0,0,0,0,0,0],"id":55,"left_children":[1,3,5,-1,-1,7,9,-1,-1,-1,-1],"loss_changes":[1.6405617E1,1.3059292E0,2.6527725E1,0E0,0E0,7.0095566E1,6.464739E1,0E0,0E0,0E0,0E0],"parents":[2147483647,0,0,1,1,2,2,5,5,6,6],"right_children":[2,4,6,-1,-1,8,10,-1,-1,-1,-1],"split_conditions":[1.2158756E1,1.1414994E1,1.8099895E1,-1.5291612E-1,-7.501785E-2,6E0,3.0118732E1,1.8140656E-1,-2.014509E-1,-1.572587E-1,8.8207675E-3],"split_indices":[1,1,1,0,0,0,1,0,0,0,0],"split_type":[0,0,0,0,0,0,0,0,0,0,0],"sum_hessian":[5.128838E3,8.895397E1,5.039884E3,5.3528774E1,3.54252E1,2.5514381E2,4.78474E3,2.0136923E2,5.3774574E1,2.201595E2,4.5645806E3],"tree_param":{"num_deleted":"0","num_feature":"2","num_nodes":"11","size_leaf_vector":"1"}},{"base_weights":[-7.564945E-3,-1.0152544E-1,8.133179E-2,-5.4868096E-1,2.8494815E-3,1.8306944E-1,1.6885616E-2,-1.6735391E-1,-6.703372E-2,3.7004914E-2,-1.703373E-1,-9.275827E-2,4.615821E-2],"categories":[],"categories_nodes":[],"categories_segments":[],"categories_sizes":[],"default_left":[0,0,0,0,0,0,0,0,0,0,0,0,0],"id":56,"left_children":[1,3,5,7,9,-1,11,-1,-1,-1,-1,-1,-1],"loss_changes":[3.4971497E1,9.499725E1,7.332216E1,1.0235977E0,1.1361045E2,0E0,8.574929E1,0E0,0E0,0E0,0E0,0E0,0E0],"parents":[2147483647,0,0,1,1,2,2,3,3,4,4,6,6],"right_children":[2,4,6,8,10,-1,12,-1,-1,-1,-1,-1,-1],"split_conditions":[1.002216E2,3E0,1E0,9.931893E1,6E0,1.8306944E-1,2E0,-1.6735391E-1,-6.703372E-2,3.7004914E-2,-1.703373E-1,-9.275827E-2,4.615821E-2],"split_indices":[1,0,0,1,0,0,0,0,0,0,0,0,0],"split_type":[0,0,0,0,0,0,0,0,0,0,0,0,0],"sum_hessian":[4.1848203E3,2.0343971E3,2.150423E3,3.841959E2,1.6502012E3,2.3264806E2,1.917775E3,3.729701E2,1.1225782E1,1.3631361E3,2.87065E2,5.6692017E2,1.3508549E3],"tree_param":{"num_deleted":"0","num_feature":"2","num_nodes":"13","size_leaf_vector":"1"}},{"base_weights":[-1.1700861E-2,4.9584672E-1,-3.6338698E-2,1.62051E-1,1.04965694E-1,4.100075E-2,-1.9592024E-1,1.6890986E-1,-2.3237215E-2,-1.8523608E-1,2.6241474E-2],"categories":[],"categories_nodes":[],"categories_segments":[],"categories_sizes":[],"default_left":[0,0,0,0,0,0,0,0,0,0,0],"id":57,"left_children":[1,3,5,-1,-1,7,9,-1,-1,-1,-1],"loss_changes":[4.0958908E1,7.9203415E-1,3.8556313E1,0E0,0E0,1.3019032E2,1.2187207E2,0E0,0E0,0E0,0E0],"parents":[2147483647,0,0,1,1,2,2,5,5,6,6],"right_children":[2,4,6,-1,-1,8,10,-1,-1,-1,-1],"split_conditions":[1.2158756E1,1.1414994E1,5E0,1.62051E-1,1.04965694E-1,3.9517147E1,6E0,1.6890986E-1,-2.3237215E-2,-1.8523608E-1,2.6241474E-2],"split_indices":[1,1,0,0,0,1,0,0,0,0,0],"split_type":[0,0,0,0,0,0,0,0,0,0,0],"sum_hessian":[3.2729941E3,1.5063977E2,3.1223545E3,1.134793E2,3.716047E1,2.1036072E3,1.01874713E3,3.8836627E2,1.715241E3,4.0907968E2,6.096675E2],"tree_param":{"num_deleted":"0","num_feature":"2","num_nodes":"11","size_leaf_vector":"1"}},{"base_weights":[1.4554392E-2,-4.1058126E-1,2.218419E-2,-1.525115E-1,-7.807752E-2,3.1048518E-1,8.69194E-3,1.7328115E-1,-1.8985116E-1,-1.5544787E-1,9.278711E-3],"categories":[],"categories_nodes":[],"categories_segments":[],"categories_sizes":[],"default_left":[0,0,0,0,0,0,0,0,0,0,0],"id":58,"left_children":[1,3,5,-1,-1,7,9,-1,-1,-1,-1],"loss_changes":[1.6148449E1,1.1579618E0,1.901399E1,0E0,0E0,5.5431877E1,5.4743195E1,0E0,0E0,0E0,0E0],"parents":[2147483647,0,0,1,1,2,2,5,5,6,6],"right_children":[2,4,6,-1,-1,8,10,-1,-1,-1,-1],"split_conditions":[1.2158756E1,1.1414994E1,1.8099895E1,-1.525115E-1,-7.807752E-2,6E0,3.0118732E1,1.7328115E-1,-1.8985116E-1,-1.5544787E-1,9.278711E-3],"split_indices":[1,1,1,0,0,0,1,0,0,0,0],"split_type":[0,0,0,0,0,0,0,0,0,0,0],"sum_hessian":[4.974596E3,8.6772675E1,4.8878237E3,5.1129345E1,3.564333E1,2.175355E2,4.670288E3,1.6983218E2,4.7703335E1,1.8823503E2,4.482053E3],"tree_param":{"num_deleted":"0","num_feature":"2","num_nodes":"11","size_leaf_vector":"1"}},{"base_weights":[-8.486178E-3,1.8850913E-2,-3.218956E-1,-2.1396594E-2,5.5955374E-1,-6.4914745E-1,3.809346E-1,-3.6335815E-2,6.71259E-2,1.1852643E-1,1.729229E-1,-2.2367096E-1,-1.6307622E-1,3.989049E-2,1.5481156E-1],"categories":[],"categories_nodes":[],"categories_segments":[],"categories_sizes":[],"default_left":[0,0,0,0,0,0,0,0,0,0,0,0,0,0,0],"id":59,"left_children":[1,3,5,7,9,11,13,-1,-1,-1,-1,-1,-1,-1,-1],"loss_changes":[3.4441906E1,8.0482254E1,7.442514E1,8.418688E1,4.8254395E-1,1.838211E0,3.3850126E0,0E0,0E0,0E0,0E0,0E0,0E0,0E0,0E0],"parents":[2147483647,0,0,1,1,2,2,3,3,4,4,5,5,6,6],"right_children":[2,4,6,8,10,12,14,-1,-1,-1,-1,-1,-1,-1,-1],"split_conditions":[7E0,1.9868927E2,8.720408E2,5E0,2.0228249E2,2.9845914E2,9.285238E2,-3.6335815E-2,6.71259E-2,1.1852643E-1,1.729229E-1,-2.2367096E-1,-1.6307622E-1,3.989049E-2,1.5481156E-1],"split_indices":[0,1,1,0,1,1,1,0,0,0,0,0,0,0,0],"split_type":[0,0,0,0,0,0,0,0,0,0,0,0,0,0,0],"sum_hessian":[4.018262E3,3.6967532E3,3.2150888E2,3.4415405E3,2.552125E2,2.1941925E2,1.0208964E2,2.4467495E3,9.947911E2,2.599672E1,2.2921577E2,1.1150424E2,1.0791501E2,3.6705498E1,6.538414E1],"tree_param":{"num_deleted":"0","num_feature":"2","num_nodes":"15","size_leaf_vector":"1"}},{"base_weights":[-9.368024E-3,3.0492054E-2,-3.0346024E-1,2.5166157E-1,-5.779322E-2,-5.238013E-1,1.8524425E-1,1.0077296E-2,2.0156384E-1,2.568386E-2,-7.0585966E-2,-7.558696E-2,-1.5830055E-1,1.5831175E-1,-1.3764626E-1],"categories":[],"categories_nodes":[],"categories_segments":[],"categories_sizes":[],"default_left":[0,0,0,0,0,0,0,0,0,0,0,0,0,0,0],"id":60,"left_children":[1,3,5,7,9,11,13,-1,-1,-1,-1,-1,-1,-1,-1],"loss_changes":[3.6317474E1,5.329165E1,3.9915646E1,7.132741E1,4.9677757E1,1.352539E-1,2.5750937E1,0E0,0E0,0E0,0E0,0E0,0E0,0E0,0E0],"parents":[2147483647,0,0,1,1,2,2,3,3,4,4,5,5,6,6],"right_children":[2,4,6,8,10,12,14,-1,-1,-1,-1,-1,-1,-1,-1],"split_conditions":[1.19789345E2,2E0,7E0,1E0,4.0116074E1,1.2073226E2,1.9868927E2,1.0077296E-2,2.0156384E-1,2.568386E-2,-7.0585966E-2,-7.558696E-2,-1.5830055E-1,1.5831175E-1,-1.3764626E-1],"split_indices":[1,0,0,0,1,1,1,0,0,0,0,0,0,0,0],"split_type":[0,0,0,0,0,0,0,0,0,0,0,0,0,0,0],"sum_hessian":[3.0963003E3,2.7275195E3,3.6878073E2,7.7761414E2,1.9499054E3,2.5412991E2,1.146508E2,5.1265405E2,2.649601E2,1.0788025E3,8.711029E2,4.492325E0,2.4963759E2,7.4969025E1,3.968178E1],"tree_param":{"num_deleted":"0","num_feature":"2","num_nodes":"15","size_leaf_vector":"1"}},{"base_weights":[1.0337705E-2,5.4943953E-2,-5.1437296E-2,3.3309776E-3,4.088979E-1,-1.7108387E-1,-2.2715544E-3,-1.2626842E-2,1.289014E-1,-1.649635E-1,2.601517E-1,8.863662E-2,-4.3112684E-2],"categories":[],"categories_nodes":[],"categories_segments":[],"categories_sizes":[],"default_left":[0,0,0,0,0,0,0,0,0,0,0,0,0],"id":61,"left_children":[1,3,5,7,9,-1,11,-1,-1,-1,-1,-1,-1],"loss_changes":[1.3327539E1,5.1305748E1,5.173419E1,4.750157E1,1.5751352E2,0E0,7.80954E1,0E0,0E0,0E0,0E0,0E0,0E0],"parents":[2147483647,0,0,1,1,2,2,3,3,4,4,6,6],"right_children":[2,4,6,8,10,-1,12,-1,-1,-1,-1,-1,-1],"split_conditions":[1.002216E2,6E0,1E0,9.0270485E1,3.0118732E1,-1.7108387E-1,2E0,-1.2626842E-2,1.289014E-1,-1.649635E-1,2.601517E-1,8.863662E-2,-4.3112684E-2],"split_indices":[1,0,0,1,1,0,0,0,0,0,0,0,0],"split_type":[0,0,0,0,0,0,0,0,0,0,0,0,0],"sum_hessian":[4.8345894E3,2.8074834E3,2.0271061E3,2.4510803E3,3.5640305E2,1.7454518E2,1.8525609E3,2.2159084E3,2.3517197E2,1.1519617E2,2.412069E2,5.962856E2,1.2562753E3],"tree_param":{"num_deleted":"0","num_feature":"2","num_nodes":"13","size_leaf_vector":"1"}},{"base_weights":[-5.4015E-3,-1.9243385E-1,5.2972365E-2,-5.264321E-1,5.2124146E-2,1.8838747E-1,-1.17934845E-1,-1.620418E-1,-2.0969352E-2,8.578253E-2,-1.6343021E-1,-6.6369623E-3,2.606878E-1,-2.2126332E-1,1.2474829E-2],"categories":[],"categories_nodes":[],"categories_segments":[],"categories_sizes":[],"default_left":[0,0,0,0,0,0,0,0,0,0,0,0,0,0,0],"id":62,"left_children":[1,3,5,7,9,11,13,-1,-1,-1,-1,-1,-1,-1,-1],"loss_changes":[4.2402596E1,7.5486824E1,6.852789E1,2.4064941E0,7.4714554E1,2.366821E2,1.294259E2,0E0,0E0,0E0,0E0,0E0,0E0,0E0,0E0],"parents":[2147483647,0,0,1,1,2,2,3,3,4,4,5,5,6,6],"right_children":[2,4,6,8,10,12,14,-1,-1,-1,-1,-1,-1,-1,-1],"split_conditions":[6.0340588E1,5E0,4E0,5.9445705E1,6E0,3E0,1.002216E2,-1.620418E-1,-2.0969352E-2,8.578253E-2,-1.6343021E-1,-6.6369623E-3,2.606878E-1,-2.2126332E-1,1.2474829E-2],"split_indices":[1,0,0,1,0,0,1,0,0,0,0,0,0,0,0],"split_type":[0,0,0,0,0,0,0,0,0,0,0,0,0,0,0],"sum_hessian":[3.8818699E3,9.228197E2,2.9590503E3,3.8959232E2,5.3322736E2,1.6508936E3,1.3081566E3,3.780582E2,1.1534124E1,3.8351553E2,1.4971185E2,1.2616229E3,3.8927066E2,2.6708862E2,1.041068E3],"tree_param":{"num_deleted":"0","num_feature":"2","num_nodes":"15","size_leaf_vector":"1"}},{"base_weights":[-8.873605E-3,7.213123E-2,-1.452555E-1,1.9076477E-1,-2.2532752E-2,-5.720017E-1,-4.34209E-3,1.3960125E-1,-2.0640027E-2,-3.283878E-2,-1.7344382E-1,4.8418786E-2,-8.6704396E-2],"categories":[],"categories_nodes":[],"categories_segments":[],"categories_sizes":[],"default_left":[0,0,0,0,0,0,0,0,0,0,0,0,0],"id":63,"left_children":[1,3,5,-1,7,9,11,-1,-1,-1,-1,-1,-1],"loss_changes":[3.22403E1,9.7725624E1,6.538922E1,0E0,3.5440422E1,7.038498E-1,3.8664234E1,0E0,0E0,0E0,0E0,0E0,0E0],"parents":[2147483647,0,0,1,1,2,2,4,4,5,5,6,6],"right_children":[2,4,6,-1,8,10,12,-1,-1,-1,-1,-1,-1],"split_conditions":[6.975118E1,2E0,1E0,1.9076477E-1,1.2158756E1,7.045627E1,1.19789345E2,1.3960125E-1,-2.0640027E-2,-3.283878E-2,-1.7344382E-1,4.8418786E-2,-8.6704396E-2],"split_indices":[1,0,0,0,1,1,1,0,0,0,0,0,0],"split_type":[0,0,0,0,0,0,0,0,0,0,0,0,0],"sum_hessian":[2.9163613E3,1.829933E3,1.0864283E3,2.6227753E2,1.5676555E3,2.6893097E2,8.1749744E2,1.3500674E2,1.4326488E3,3.772287E0,2.651587E2,5.1695575E2,3.0054166E2],"tree_param":{"num_deleted":"0","num_feature":"2","num_nodes":"13","size_leaf_vector":"1"}},{"base_weights":[1.2211815E-2,1.712525E-2,-1.510288E-1,6.482409E-3,3.7138194E-1,1.626059E-2,-1.936004E-2,1.6264707E-1,-2.0454675E-2],"categories":[],"categories_nodes":[],"categories_segments":[],"categories_sizes":[],"default_left":[0,0,0,0,0,0,0,0,0],"id":64,"left_children":[1,3,-1,5,7,-1,-1,-1,-1],"loss_changes":[1.1776235E1,1.7347765E1,0E0,1.5146907E1,1.0110956E1,0E0,0E0,0E0,0E0],"parents":[2147483647,0,0,1,1,3,3,4,4],"right_children":[2,4,-1,6,8,-1,-1,-1,-1],"split_conditions":[9.285238E2,3.6408102E2,-1.510288E-1,1.002216E2,8.720408E2,1.626059E-2,-1.936004E-2,1.6264707E-1,-2.0454675E-2],"split_indices":[1,1,0,1,1,0,0,0,0],"split_type":[0,0,0,0,0,0,0,0,0],"sum_hessian":[4.6436772E3,4.6008037E3,4.287331E1,4.467603E3,1.3320074E2,2.672223E3,1.79538E3,9.5762634E1,3.743811E1],"tree_param":{"num_deleted":"0","num_feature":"2","num_nodes":"9","size_leaf_vector":"1"}},{"base_weights":[-8.3740065E-3,-1.5527347E-1,9.785065E-3,3.9486118E-2,-3.2793984E-1,-1.4940112E-2,1.0027944E-1,-1.9133696E-1,1.0197625E-1],"categories":[],"categories_nodes":[],"categories_segments":[],"categories_sizes":[],"default_left":[0,0,0,0,0,0,0,0,0],"id":65,"left_children":[1,-1,3,5,7,-1,-1,-1,-1],"loss_changes":[3.4050453E1,0E0,3.5683483E1,8.60701E1,5.9724934E1,0E0,0E0,0E0,0E0],"parents":[2147483647,0,0,2,2,3,3,4,4],"right_children":[2,-1,4,6,8,-1,-1,-1,-1],"split_conditions":[1.746734E1,-1.5527347E-1,7E0,5E0,8.720408E2,-1.4940112E-2,1.0027944E-1,-1.9133696E-1,1.0197625E-1],"split_indices":[1,0,0,0,1,0,0,0,0],"split_type":[0,0,0,0,0,0,0,0,0],"sum_hessian":[3.6809062E3,1.2580024E2,3.555106E3,3.268539E3,2.8656696E2,2.5093152E3,7.5922375E2,1.957807E2,9.078627E1],"tree_param":{"num_deleted":"0","num_feature":"2","num_nodes":"9","size_leaf_vector":"1"}},{"base_weights":[-1.8234064E-3,7.518442E-2,-1.3392095E-1,1.8415767E-1,-7.8082685E-3,-5.574757E-1,-8.491005E-3,9.941682E-3,-1.5682568E-1,-2.7933216E-2,-1.6932897E-1,7.2195746E-2,-6.0630366E-2],"categories":[],"categories_nodes":[],"categories_segments":[],"categories_sizes":[],"default_left":[0,0,0,0,0,0,0,0,0,0,0,0,0],"id":66,"left_children":[1,3,5,-1,7,9,11,-1,-1,-1,-1,-1,-1],"loss_changes":[2.8581238E1,7.935552E1,5.4965782E1,0E0,3.2467434E1,7.108154E-1,3.860519E1,0E0,0E0,0E0,0E0,0E0,0E0],"parents":[2147483647,0,0,1,1,2,2,4,4,5,5,6,6],"right_children":[2,4,6,-1,8,10,12,-1,-1,-1,-1,-1,-1],"split_conditions":[6.975118E1,2E0,1E0,1.8415767E-1,5.0175472E1,7.045627E1,2E0,9.941682E-3,-1.5682568E-1,-2.7933216E-2,-1.6932897E-1,7.2195746E-2,-6.0630366E-2],"split_indices":[1,0,0,0,1,1,0,0,0,0,0,0,0],"split_type":[0,0,0,0,0,0,0,0,0,0,0,0,0],"sum_hessian":[2.807655E3,1.7739442E3,1.0337108E3,2.3596796E2,1.5379762E3,2.3539137E2,7.9831946E2,1.4255549E3,1.1242133E2,3.6854534E0,2.3170593E2,3.4898807E2,4.493314E2],"tree_param":{"num_deleted":"0","num_feature":"2","num_nodes":"13","size_leaf_vector":"1"}},{"base_weights":[9.729443E-3,4.874333E-2,-4.358524E-2,5.416587E-3,3.7470734E-1,-1.6767368E-1,1.8520853E-3,-9.746037E-3,1.1318838E-1,-1.6216081E-1,2.5073028E-1,7.625377E-2,-3.7253242E-2],"categories":[],"categories_nodes":[],"categories_segments":[],"categories_sizes":[],"default_left":[0,0,0,0,0,0,0,0,0,0,0,0,0],"id":67,"left_children":[1,3,5,7,9,-1,11,-1,-1,-1,-1,-1,-1],"loss_changes":[9.432932E0,3.6980576E1,4.4873634E1,3.2606586E1,1.3008997E2,0E0,5.606796E1,0E0,0E0,0E0,0E0,0E0,0E0],"parents":[2147483647,0,0,1,1,2,2,3,3,4,4,6,6],"right_children":[2,4,6,8,10,-1,12,-1,-1,-1,-1,-1,-1],"split_conditions":[1.002216E2,6E0,1E0,9.0270485E1,3.0118732E1,-1.6767368E-1,2E0,-9.746037E-3,1.1318838E-1,-1.6216081E-1,2.5073028E-1,7.625377E-2,-3.7253242E-2],"split_indices":[1,0,0,1,1,0,0,0,0,0,0,0,0],"split_type":[0,0,0,0,0,0,0,0,0,0,0,0,0],"sum_hessian":[4.5330137E3,2.6176162E3,1.9153975E3,2.3114038E3,3.062124E2,1.5428418E2,1.7611133E3,2.098435E3,2.1296872E2,1.0252307E2,2.0368932E2,5.8628314E2,1.1748301E3],"tree_param":{"num_deleted":"0","num_feature":"2","num_nodes":"13","size_leaf_vector":"1"}},{"base_weights":[-1.0888264E-2,-1.90058E-1,4.190905E-2,-5.180094E-1,4.207043E-2,1.6919288E-1,-1.2740381E-1,-1.6013297E-1,-1.5849356E-2,8.374614E-2,-1.6263786E-1,-6.2194434E-3,2.3646413E-1,-1.13971256E-1,6.8120085E-2],"categories":[],"categories_nodes":[],"categories_segments":[],"categories_sizes":[],"default_left":[0,0,0,0,0,0,0,0,0,0,0,0,0,0,0],"id":68,"left_children":[1,3,5,7,9,11,13,-1,-1,-1,-1,-1,-1,-1,-1],"loss_changes":[3.388411E1,6.2085426E1,5.9649208E1,2.4506226E0,6.639733E1,1.8575925E2,1.06413E2,0E0,0E0,0E0,0E0,0E0,0E0,0E0,0E0],"parents":[2147483647,0,0,1,1,2,2,3,3,4,4,5,5,6,6],"right_children":[2,4,6,8,10,12,14,-1,-1,-1,-1,-1,-1,-1,-1],"split_conditions":[6.0340588E1,5E0,4E0,5.9445705E1,6E0,3E0,1.4861192E2,-1.6013297E-1,-1.5849356E-2,8.374614E-2,-1.6263786E-1,-6.2194434E-3,2.3646413E-1,-1.13971256E-1,6.8120085E-2],"split_indices":[1,0,0,1,0,0,1,0,0,0,0,0,0,0,0],"split_type":[0,0,0,0,0,0,0,0,0,0,0,0,0,0,0],"sum_hessian":[3.580109E3,8.14266E2,2.765843E3,3.3696692E2,4.7729904E2,1.5788878E3,1.1869552E3,3.2577728E2,1.1189639E1,3.3988596E2,1.374131E2,1.2089357E3,3.699521E2,6.9313916E2,4.93816E2],"tree_param":{"num_deleted":"0","num_feature":"2","num_nodes":"15","size_leaf_vector":"1"}},{"base_weights":[-3.251405E-3,-2.9016024E-2,3.981985E-1,1.3230921E-2,-5.15564E-1,5.7802784E-1,-1.4759481E-1,7.7502154E-2,-2.337688E-2,-6.106111E-2,-1.5613878E-1,1.7755951E-1,1.9076457E-2],"categories":[],"categories_nodes":[],"categories_segments":[],"categories_sizes":[],"default_left":[0,0,0,0,0,0,0,0,0,0,0,0,0],"id":69,"left_children":[1,3,5,7,9,11,-1,-1,-1,-1,-1,-1,-1],"loss_changes":[2.7541876E1,5.1437763E1,2.59917E1,5.1479103E1,1.99646E-1,9.166565E-1,0E0,0E0,0E0,0E0,0E0,0E0,0E0],"parents":[2147483647,0,0,1,1,2,2,3,3,4,4,5,5],"right_children":[2,4,6,8,10,12,-1,-1,-1,-1,-1,-1,-1],"split_conditions":[7E0,1.19789345E2,2.0228249E2,2E0,1.2073226E2,1.9868927E2,-1.4759481E-1,7.7502154E-2,-2.337688E-2,-6.106111E-2,-1.5613878E-1,1.7755951E-1,1.9076457E-2],"split_indices":[0,1,1,0,1,1,0,0,0,0,0,0,0],"split_type":[0,0,0,0,0,0,0,0,0,0,0,0,0],"sum_hessian":[2.6606829E3,2.501093E3,1.5958972E2,2.3021687E3,1.989244E2,1.3306029E2,2.6529425E1,6.2357166E2,1.6785969E3,3.73234E0,1.9519205E2,1.2942848E2,3.6318095E0],"tree_param":{"num_deleted":"0","num_feature":"2","num_nodes":"13","size_leaf_vector":"1"}},{"base_weights":[1.173608E-2,5.373899E-2,-4.2684723E-2,-1.0134183E-3,2.6837978E-1,-1.6482812E-1,-3.315037E-3,-1.5804996E-1,1.5249277E-2,-6.4388798E-3,2.4379699E-1,3.4502853E-2,-7.483151E-2],"categories":[],"categories_nodes":[],"categories_segments":[],"categories_sizes":[],"default_left":[0,0,0,0,0,0,0,0,0,0,0,0,0],"id":70,"left_children":[1,3,5,7,9,-1,11,-1,-1,-1,-1,-1,-1],"loss_changes":[9.991302E0,2.8990559E1,3.7986473E1,5.3633724E1,7.9110634E1,0E0,5.1513718E1,0E0,0E0,0E0,0E0,0E0,0E0],"parents":[2147483647,0,0,1,1,2,2,3,3,4,4,6,6],"right_children":[2,4,6,8,10,-1,12,-1,-1,-1,-1,-1,-1],"split_conditions":[1.002216E2,5E0,1E0,3.9517147E1,3.0118732E1,-1.6482812E-1,5E0,-1.5804996E-1,1.5249277E-2,-6.4388798E-3,2.4379699E-1,3.4502853E-2,-7.483151E-2],"split_indices":[1,0,0,1,1,0,0,0,0,0,0,0,0],"split_type":[0,0,0,0,0,0,0,0,0,0,0,0,0],"sum_hessian":[4.368966E3,2.4658176E3,1.9031478E3,1.9654493E3,5.0036835E2,1.362656E2,1.7668823E3,1.7557338E2,1.789876E3,3.2712543E2,1.7324292E2,1.193592E3,5.732903E2],"tree_param":{"num_deleted":"0","num_feature":"2","num_nodes":"13","size_leaf_vector":"1"}},{"base_weights":[-1.2435311E-2,1.5323857E-2,-3.6633396E-1,-2.7988236E-2,5.5260885E-1,-6.378729E-1,2.4354568E-1,-3.6919367E-2,6.6966124E-2,1.1061165E-1,1.7143844E-1,-2.1846122E-1,-1.584168E-1,-7.1415654E-3,1.5017845E-1],"categories":[],"categories_nodes":[],"categories_segments":[],"categories_sizes":[],"default_left":[0,0,0,0,0,0,0,0,0,0,0,0,0,0,0],"id":71,"left_children":[1,3,5,7,9,11,13,-1,-1,-1,-1,-1,-1,-1,-1],"loss_changes":[3.3685047E1,7.401502E1,4.14561E1,7.0333496E1,6.119232E-1,1.3299942E0,5.3415923E0,0E0,0E0,0E0,0E0,0E0,0E0,0E0,0E0],"parents":[2147483647,0,0,1,1,2,2,3,3,4,4,5,5,6,6],"right_children":[2,4,6,8,10,12,14,-1,-1,-1,-1,-1,-1,-1,-1],"split_conditions":[7E0,1.9868927E2,8.720408E2,5E0,2.0228249E2,2.9845914E2,9.285238E2,-3.6919367E-2,6.6966124E-2,1.1061165E-1,1.7143844E-1,-2.1846122E-1,-1.584168E-1,-7.1415654E-3,1.5017845E-1],"split_indices":[0,1,1,0,1,1,1,0,0,0,0,0,0,0,0],"split_type":[0,0,0,0,0,0,0,0,0,0,0,0,0,0,0],"sum_hessian":[3.4273052E3,3.1789136E3,2.4839151E2,2.9426462E3,2.362673E2,1.718377E2,7.655381E1,2.1350806E3,8.075656E2,2.3880028E1,2.1238728E2,9.119397E1,8.064373E1,3.796974E1,3.8584072E1],"tree_param":{"num_deleted":"0","num_feature":"2","num_nodes":"15","size_leaf_vector":"1"}},{"base_weights":[5.16659E-4,1.5832052E-1,-1.8623568E-2,-4.028037E-2,3.6324906E-1,-1.1353166E-3,-1.5496969E-1,1.7119919E-1,-1.2925994E-1],"categories":[],"categories_nodes":[],"categories_segments":[],"categories_sizes":[],"default_left":[0,0,0,0,0,0,0,0,0],"id":72,"left_children":[1,-1,3,5,7,-1,-1,-1,-1],"loss_changes":[2.5838184E1,0E0,2.0448683E1,4.0657764E1,2.210392E1,0E0,0E0,0E0,0E0],"parents":[2147483647,0,0,2,2,3,3,4,4],"right_children":[2,-1,4,6,8,-1,-1,-1,-1],"split_conditions":[1.1414994E1,1.5832052E-1,7E0,1.2073226E2,1.9868927E2,-1.1353166E-3,-1.5496969E-1,1.7119919E-1,-1.2925994E-1],"split_indices":[1,0,0,1,1,0,0,0,0],"split_type":[0,0,0,0,0,0,0,0,0],"sum_hessian":[2.5585237E3,8.870022E1,2.4698235E3,2.3381184E3,1.3170508E2,2.1726445E3,1.6547377E2,1.04652336E2,2.7052742E1],"tree_param":{"num_deleted":"0","num_feature":"2","num_nodes":"9","size_leaf_vector":"1"}},{"base_weights":[9.322429E-3,-1.4888602E-1,1.3374619E-2,2.6772115E-1,2.0497807E-4,1.3153845E-1,-1.7148346E-1,-1.5363118E-1,4.806326E-3],"categories":[],"categories_nodes":[],"categories_segments":[],"categories_sizes":[],"default_left":[0,0,0,0,0,0,0,0,0],"id":73,"left_children":[1,-1,3,5,7,-1,-1,-1,-1],"loss_changes":[8.702944E0,0E0,1.4107881E1,2.9964294E1,3.2463047E1,0E0,0E0,0E0,0E0],"parents":[2147483647,0,0,2,2,3,3,4,4],"right_children":[2,-1,4,6,8,-1,-1,-1,-1],"split_conditions":[1.1414994E1,-1.4888602E-1,1.8099895E1,6E0,2.9682531E1,1.3153845E-1,-1.7148346E-1,-1.5363118E-1,4.806326E-3],"split_indices":[1,0,1,0,1,0,0,0,0],"split_type":[0,0,0,0,0,0,0,0,0],"sum_hessian":[4.243534E3,3.2773476E1,4.2107607E3,2.0634138E2,4.0044194E3,1.7185881E2,3.4482582E1,1.1898327E2,3.885436E3],"tree_param":{"num_deleted":"0","num_feature":"2","num_nodes":"9","size_leaf_vector":"1"}},{"base_weights":[-1.2278927E-2,-1.9879211E-1,4.0134463E-2,-1.582894E-1,1.2321647E-3,1.6194633E-1,-1.22814216E-1,6.1007485E-2,-1.6175312E-1,-4.386731E-3,2.1745722E-1,-1.05119094E-1,6.1350424E-2],"categories":[],"categories_nodes":[],"categories_segments":[],"categories_sizes":[],"default_left":[0,0,0,0,0,0,0,0,0,0,0,0,0],"id":74,"left_children":[1,3,5,-1,7,9,11,-1,-1,-1,-1,-1,-1],"loss_changes":[3.2563694E1,4.806459E1,5.1637737E1,0E0,4.9847927E1,1.4795891E2,8.297983E1,0E0,0E0,0E0,0E0,0E0,0E0],"parents":[2147483647,0,0,1,1,2,2,4,4,5,5,6,6],"right_children":[2,4,6,-1,8,10,12,-1,-1,-1,-1,-1,-1],"split_conditions":[5.9445705E1,5E0,4E0,-1.582894E-1,6E0,3E0,1.4964896E2,6.1007485E-2,-1.6175312E-1,-4.386731E-3,2.1745722E-1,-1.05119094E-1,6.1350424E-2],"split_indices":[1,0,0,0,0,0,1,0,0,0,0,0,0],"split_type":[0,0,0,0,0,0,0,0,0,0,0,0,0],"sum_hessian":[3.3292393E3,7.2972345E2,2.5995156E3,2.7537314E2,4.543503E2,1.4875258E3,1.11199E3,3.3112518E2,1.2322513E2,1.1330844E3,3.5444147E2,6.558833E2,4.5610663E2],"tree_param":{"num_deleted":"0","num_feature":"2","num_nodes":"13","size_leaf_vector":"1"}},{"base_weights":[-4.5141913E-3,4.4364068E-1,-2.6206277E-2,1.565094E-1,8.0098175E-2,4.007999E-2,-1.8222922E-1,-1.9372478E-2,1.5129595E-1,-1.6896862E-1,1.8638654E-2],"categories":[],"categories_nodes":[],"categories_segments":[],"categories_sizes":[],"default_left":[0,0,0,0,0,0,0,0,0,0,0],"id":75,"left_children":[1,3,5,-1,-1,7,9,-1,-1,-1,-1],"loss_changes":[2.3865183E1,1.423502E0,2.4222198E1,0E0,0E0,7.990929E1,6.504794E1,0E0,0E0,0E0,0E0],"parents":[2147483647,0,0,1,1,2,2,5,5,6,6],"right_children":[2,4,6,-1,-1,8,10,-1,-1,-1,-1],"split_conditions":[1.2158756E1,1.1414994E1,5E0,1.565094E-1,8.0098175E-2,4E0,6E0,-1.9372478E-2,1.5129595E-1,-1.6896862E-1,1.8638654E-2],"split_indices":[1,1,0,0,0,0,0,0,0,0,0],"split_type":[0,0,0,0,0,0,0,0,0,0,0],"sum_hessian":[2.4527126E3,1.1233978E2,2.3403728E3,7.655712E1,3.578267E1,1.643062E3,6.973109E2,1.3415038E3,3.0155817E2,2.719639E2,4.2534702E2],"tree_param":{"num_deleted":"0","num_feature":"2","num_nodes":"11","size_leaf_vector":"1"}},{"base_weights":[9.712048E-3,5.3867616E-2,-4.6238136E-2,4.6727797E-3,2.6139137E-1,-1.6291974E-1,-1.0110689E-2,-1.5696603E-1,1.5383133E-2,-2.1754678E-3,2.3290887E-1,6.3653715E-2,-3.5210885E-2],"categories":[],"categories_nodes":[],"categories_segments":[],"categories_sizes":[],"default_left":[0,0,0,0,0,0,0,0,0,0,0,0,0],"id":76,"left_children":[1,3,5,7,9,-1,11,-1,-1,-1,-1,-1,-1],"loss_changes":[1.0297688E1,2.3781612E1,3.299681E1,4.6381504E1,6.1761658E1,0E0,4.0915863E1,0E0,0E0,0E0,0E0,0E0,0E0],"parents":[2147483647,0,0,1,1,2,2,3,3,4,4,6,6],"right_children":[2,4,6,8,10,-1,12,-1,-1,-1,-1,-1,-1],"split_conditions":[1.002216E2,5E0,1E0,3.9517147E1,3.0118732E1,-1.6291974E-1,2E0,-1.5696603E-1,1.5383133E-2,-2.1754678E-3,2.3290887E-1,6.3653715E-2,-3.5210885E-2],"split_indices":[1,0,0,1,1,0,0,0,0,0,0,0,0],"split_type":[0,0,0,0,0,0,0,0,0,0,0,0,0],"sum_hessian":[4.166232E3,2.3285728E3,1.8376592E3,1.8831761E3,4.4539648E2,1.23618286E2,1.7140409E3,1.519373E2,1.7312389E3,2.9335117E2,1.520453E2,5.5755426E2,1.1564866E3],"tree_param":{"num_deleted":"0","num_feature":"2","num_nodes":"13","size_leaf_vector":"1"}},{"base_weights":[-9.1005685E-3,1.9189274E-2,-3.96588E-1,-1.9647367E-2,5.366216E-1,-6.403796E-1,1.6516343E-1,-9.542029E-2,1.9121518E-2,9.69414E-2,1.6833709E-1,-2.259075E-1,-1.5811133E-1,-2.5764057E-2,1.4774238E-1],"categories":[],"categories_nodes":[],"categories_segments":[],"categories_sizes":[],"default_left":[0,0,0,0,0,0,0,0,0,0,0,0,0,0,0],"id":77,"left_children":[1,3,5,7,9,11,13,-1,-1,-1,-1,-1,-1,-1,-1],"loss_changes":[3.5416058E1,6.0523502E1,3.0211048E1,6.974577E1,9.185715E-1,1.5629654E0,5.5742455E0,0E0,0E0,0E0,0E0,0E0,0E0,0E0,0E0],"parents":[2147483647,0,0,1,1,2,2,3,3,4,4,5,5,6,6],"right_children":[2,4,6,8,10,12,14,-1,-1,-1,-1,-1,-1,-1,-1],"split_conditions":[7E0,1.9868927E2,8.720408E2,2E0,2.0228249E2,2.9845914E2,9.285238E2,-9.542029E-2,1.9121518E-2,9.69414E-2,1.6833709E-1,-2.259075E-1,-1.5811133E-1,-2.5764057E-2,1.4774238E-1],"split_indices":[0,1,1,0,1,1,1,0,0,0,0,0,0,0,0],"split_type":[0,0,0,0,0,0,0,0,0,0,0,0,0,0,0],"sum_hessian":[3.2291206E3,3.0102942E3,2.1882632E2,2.8010215E3,2.0927275E2,1.5250256E2,6.632376E1,6.111234E2,2.1898982E3,2.300663E1,1.8626613E2,7.365566E1,7.884689E1,3.7952377E1,2.8371387E1],"tree_param":{"num_deleted":"0","num_feature":"2","num_nodes":"15","size_leaf_vector":"1"}},{"base_weights":[-8.782363E-4,7.445821E-2,-1.300726E-1,1.772258E-1,-5.62491E-3,-5.477167E-1,3.9240895E-3,-7.1595766E-2,4.1943915E-2,-2.982234E-2,-1.6655986E-1,9.48595E-2,-7.884894E-2],"categories":[],"categories_nodes":[],"categories_segments":[],"categories_sizes":[],"default_left":[0,0,0,0,0,0,0,0,0,0,0,0,0],"id":78,"left_children":[1,3,5,-1,7,9,11,-1,-1,-1,-1,-1,-1],"loss_changes":[2.3196362E1,6.2247196E1,4.9128754E1,0E0,4.423613E1,6.6015244E-1,5.5528008E1,0E0,0E0,0E0,0E0,0E0,0E0],"parents":[2147483647,0,0,1,1,2,2,4,4,5,5,6,6],"right_children":[2,4,6,-1,8,10,12,-1,-1,-1,-1,-1,-1],"split_conditions":[6.975118E1,2E0,1E0,1.772258E-1,4E0,7.045627E1,2E0,-7.1595766E-2,4.1943915E-2,-2.982234E-2,-1.6655986E-1,9.48595E-2,-7.884894E-2],"split_indices":[1,0,0,0,0,1,0,0,0,0,0,0,0],"split_type":[0,0,0,0,0,0,0,0,0,0,0,0,0],"sum_hessian":[2.3812634E3,1.5044215E3,8.76842E2,2.0116132E2,1.3032603E3,2.1223993E2,6.6460205E2,5.0057468E2,8.0268555E2,3.718905E0,2.0852103E2,3.0609177E2,3.5851028E2],"tree_param":{"num_deleted":"0","num_feature":"2","num_nodes":"13","size_leaf_vector":"1"}},{"base_weights":[8.927365E-3,5.0077073E-2,-4.428241E-2,8.005735E-3,2.3764947E-1,-1.6189311E-1,-8.751971E-3,-1.5567431E-1,1.4406481E-2,-4.686677E-3,2.237643E-1,2.7591316E-2,-6.9820344E-2],"categories":[],"categories_nodes":[],"categories_segments":[],"categories_sizes":[],"default_left":[0,0,0,0,0,0,0,0,0,0,0,0,0],"id":79,"left_children":[1,3,5,7,9,-1,11,-1,-1,-1,-1,-1,-1],"loss_changes":[8.827598E0,1.7938246E1,3.0941679E1,3.9199467E1,5.3617767E1,0E0,3.7056667E1,0E0,0E0,0E0,0E0,0E0,0E0],"parents":[2147483647,0,0,1,1,2,2,3,3,4,4,6,6],"right_children":[2,4,6,8,10,-1,12,-1,-1,-1,-1,-1,-1],"split_conditions":[1.002216E2,5E0,1E0,3.9517147E1,3.0118732E1,-1.6189311E-1,5E0,-1.5567431E-1,1.4406481E-2,-4.686677E-3,2.237643E-1,2.7591316E-2,-6.9820344E-2],"split_indices":[1,0,0,1,1,0,0,0,0,0,0,0,0],"split_type":[0,0,0,0,0,0,0,0,0,0,0,0,0],"sum_hessian":[4.0296511E3,2.2723733E3,1.7572778E3,1.8569202E3,4.154531E2,1.1665796E2,1.6406199E3,1.3022171E2,1.7266985E3,2.779226E2,1.375305E2,1.1321094E3,5.0851056E2],"tree_param":{"num_deleted":"0","num_feature":"2","num_nodes":"13","size_leaf_vector":"1"}},{"base_weights":[-1.0958711E-2,-2.0887713E-1,4.0945943E-2,-5.0345254E-1,-1.95215E-2,1.5577409E-1,-1.0917299E-1,-1.5702352E-1,-2.5027758E-2,5.2300137E-2,-1.5981492E-1,-8.566674E-4,2.0645414E-1,-1.1029669E-1,4.8235826E-2],"categories":[],"categories_nodes":[],"categories_segments":[],"categories_sizes":[],"default_left":[0,0,0,0,0,0,0,0,0,0,0,0,0,0,0],"id":80,"left_children":[1,3,5,7,9,11,13,-1,-1,-1,-1,-1,-1,-1,-1],"loss_changes":[3.177851E1,3.5839695E1,4.2265366E1,2.0642471E0,3.9117157E1,1.1731836E2,7.422168E1,0E0,0E0,0E0,0E0,0E0,0E0,0E0,0E0],"parents":[2147483647,0,0,1,1,2,2,3,3,4,4,5,5,6,6],"right_children":[2,4,6,8,10,12,14,-1,-1,-1,-1,-1,-1,-1,-1],"split_conditions":[6.0340588E1,5E0,4E0,5.9445705E1,6E0,3E0,5E0,-1.5702352E-1,-2.5027758E-2,5.2300137E-2,-1.5981492E-1,-8.566674E-4,2.0645414E-1,-1.1029669E-1,4.8235826E-2],"split_indices":[1,0,0,1,0,0,0,0,0,0,0,0,0,0,0],"split_type":[0,0,0,0,0,0,0,0,0,0,0,0,0,0,0],"sum_hessian":[3.0916025E3,6.417005E2,2.449902E3,2.504396E2,3.912609E2,1.3880924E3,1.0618097E3,2.388439E2,1.1595699E1,2.844663E2,1.0679459E2,1.0702174E3,3.1787497E2,5.4224994E2,5.1955975E2],"tree_param":{"num_deleted":"0","num_feature":"2","num_nodes":"15","size_leaf_vector":"1"}},{"base_weights":[-3.2259354E-3,2.8080503E-2,-3.0073863E-1,2.4767436E-1,-5.5929232E-2,-5.077068E-1,1.7401838E-1,4.1512502E-3,1.8707019E-1,-8.513887E-2,2.5175227E-2,-5.6215942E-2,-1.5423095E-1,1.4145672E-1,-1.4596575E-1],"categories":[],"categories_nodes":[],"categories_segments":[],"categories_sizes":[],"default_left":[0,0,0,0,0,0,0,0,0,0,0,0,0,0,0],"id":81,"left_children":[1,3,5,7,9,11,13,-1,-1,-1,-1,-1,-1,-1,-1],"loss_changes":[2.1068016E1,3.7771305E1,2.124925E1,4.978732E1,4.7223473E1,2.1146774E-1,1.32246685E1,0E0,0E0,0E0,0E0,0E0,0E0,0E0,0E0],"parents":[2147483647,0,0,1,1,2,2,3,3,4,4,5,5,6,6],"right_children":[2,4,6,8,10,12,14,-1,-1,-1,-1,-1,-1,-1,-1],"split_conditions":[1.19789345E2,2E0,7E0,1E0,4E0,1.2073226E2,2.0228249E2,4.1512502E-3,1.8707019E-1,-8.513887E-2,2.5175227E-2,-5.6215942E-2,-1.5423095E-1,1.4145672E-1,-1.4596575E-1],"split_indices":[1,0,0,0,0,1,1,0,0,0,0,0,0,0,0],"split_type":[0,0,0,0,0,0,0,0,0,0,0,0,0,0,0],"sum_hessian":[2.2600508E3,2.0456938E3,2.1435709E2,5.6552203E2,1.4801718E3,1.4923106E2,6.5126015E1,3.4927844E2,2.162436E2,5.6253864E2,9.176332E2,3.514736E0,1.4571634E2,4.5100227E1,2.0025785E1],"tree_param":{"num_deleted":"0","num_feature":"2","num_nodes":"15","size_leaf_vector":"1"}},{"base_weights":[1.0030905E-2,4.7348626E-4,2.863531E-1,5.4969214E-2,-6.962675E-2,4.083449E-1,-1.4355268E-1,7.430251E-3,9.5125355E-2,3.8769594E-3,-1.0665066E-1,1.5857944E-1,4.8432887E-2],"categories":[],"categories_nodes":[],"categories_segments":[],"categories_sizes":[],"default_left":[0,0,0,0,0,0,0,0,0,0,0,0,0],"id":82,"left_children":[1,3,5,7,9,11,-1,-1,-1,-1,-1,-1,-1],"loss_changes":[1.032336E1,1.4441595E1,1.2389109E1,1.6829416E1,3.9024498E1,3.2770538E0,0E0,0E0,0E0,0E0,0E0,0E0,0E0],"parents":[2147483647,0,0,1,1,2,2,3,3,4,4,5,5],"right_children":[2,4,6,8,10,12,-1,-1,-1,-1,-1,-1,-1],"split_conditions":[3.6408102E2,9.931893E1,9.285238E2,8.85135E1,5E0,8.720408E2,-1.4355268E-1,7.430251E-3,9.5125355E-2,3.8769594E-3,-1.0665066E-1,1.5857944E-1,4.8432887E-2],"split_indices":[1,1,1,1,0,1,0,0,0,0,0,0,0],"split_type":[0,0,0,0,0,0,0,0,0,0,0,0,0],"sum_hessian":[3.9080425E3,3.7783586E3,1.2968396E2,2.1259033E3,1.6524553E3,1.1224719E2,1.7436762E1,1.9072397E3,2.1866342E2,1.2829446E3,3.6951077E2,7.471597E1,3.7531223E1],"tree_param":{"num_deleted":"0","num_feature":"2","num_nodes":"13","size_leaf_vector":"1"}},{"base_weights":[-1.0646484E-2,2.0745518E-2,-4.2956522E-1,-1.8611722E-2,5.311983E-1,-6.3253E-1,8.501347E-2,-9.499411E-2,1.8229723E-2,9.6714534E-2,1.6699713E-1,-2.2234513E-1,-1.5805185E-1,-4.461125E-2,1.4539994E-1],"categories":[],"categories_nodes":[],"categories_segments":[],"categories_sizes":[],"default_left":[0,0,0,0,0,0,0,0,0,0,0,0,0,0,0],"id":83,"left_children":[1,3,5,7,9,11,13,-1,-1,-1,-1,-1,-1,-1,-1],"loss_changes":[3.9433655E1,5.605868E1,2.1885845E1,6.131859E1,8.824234E-1,1.3318558E0,5.6773396E0,0E0,0E0,0E0,0E0,0E0,0E0,0E0,0E0],"parents":[2147483647,0,0,1,1,2,2,3,3,4,4,5,5,6,6],"right_children":[2,4,6,8,10,12,14,-1,-1,-1,-1,-1,-1,-1,-1],"split_conditions":[7E0,1.9868927E2,8.720408E2,2E0,2.0228249E2,2.9845914E2,9.285238E2,-9.499411E-2,1.8229723E-2,9.6714534E-2,1.6699713E-1,-2.2234513E-1,-1.5805185E-1,-4.461125E-2,1.4539994E-1],"split_indices":[0,1,1,0,1,1,1,0,0,0,0,0,0,0,0],"split_type":[0,0,0,0,0,0,0,0,0,0,0,0,0,0,0],"sum_hessian":[2.9969202E3,2.7888835E3,2.0803667E2,2.5901404E3,1.9874303E2,1.4902692E2,5.9009747E1,5.4412976E2,2.0460107E3,2.308221E1,1.7566081E2,7.0529625E1,7.84973E1,3.7631E1,2.1378746E1],"tree_param":{"num_deleted":"0","num_feature":"2","num_nodes":"15","size_leaf_vector":"1"}},{"base_weights":[-4.9779905E-5,7.322903E-2,-1.3847877E-1,1.7304534E-1,1.8129678E-3,-5.3618115E-1,-1.0786804E-2,-5.7622954E-2,3.6322527E-2,-2.5688216E-2,-1.6343367E-1,8.287699E-2,-7.859109E-2],"categories":[],"categories_nodes":[],"categories_segments":[],"categories_sizes":[],"default_left":[0,0,0,0,0,0,0,0,0,0,0,0,0],"id":84,"left_children":[1,3,5,-1,7,9,11,-1,-1,-1,-1,-1,-1],"loss_changes":[2.2278437E1,5.164552E1,3.859912E1,0E0,2.9128893E1,6.689682E-1,4.1634876E1,0E0,0E0,0E0,0E0,0E0,0E0],"parents":[2147483647,0,0,1,1,2,2,4,4,5,5,6,6],"right_children":[2,4,6,-1,8,10,12,-1,-1,-1,-1,-1,-1],"split_conditions":[6.975118E1,2E0,1E0,1.7304534E-1,4E0,7.045627E1,2E0,-5.7622954E-2,3.6322527E-2,-2.5688216E-2,-1.6343367E-1,8.287699E-2,-7.859109E-2],"split_indices":[1,0,0,0,0,1,0,0,0,0,0,0,0],"split_type":[0,0,0,0,0,0,0,0,0,0,0,0,0],"sum_hessian":[2.1942373E3,1.4350499E3,7.5918744E2,1.7735542E2,1.2576946E3,1.8373561E2,5.754518E2,4.7875378E2,7.789408E2,3.6457112E0,1.800899E2,2.6850928E2,3.0694254E2],"tree_param":{"num_deleted":"0","num_feature":"2","num_nodes":"13","size_leaf_vector":"1"}},{"base_weights":[8.500958E-3,-3.327757E-3,1.9455978E-1,1.9610256E-2,-1.6340488E-1,-1.6161281E-1,4.5459846E-1,1.4725559E-2,-5.722995E-2,2.0154797E-1,-1.2614682E-2],"categories":[],"categories_nodes":[],"categories_segments":[],"categories_sizes":[],"default_left":[0,0,0,0,0,0,0,0,0,0,0],"id":85,"left_children":[1,3,5,7,-1,-1,9,-1,-1,-1,-1],"loss_changes":[8.340193E0,4.426385E1,4.3437286E1,2.1215275E1,0E0,0E0,1.81273E1,0E0,0E0,0E0,0E0],"parents":[2147483647,0,0,1,1,2,2,3,3,6,6],"right_children":[2,4,6,8,-1,-1,10,-1,-1,-1,-1],"split_conditions":[7E0,2.0228249E2,1.9868927E2,6E0,-1.6340488E-1,-1.6161281E-1,8.720408E2,1.4725559E-2,-5.722995E-2,2.0154797E-1,-1.2614682E-2],"split_indices":[0,1,1,0,0,0,1,0,0,0,0],"split_type":[0,0,0,0,0,0,0,0,0,0,0],"sum_hessian":[3.7882615E3,3.5627417E3,2.2551967E2,3.418844E3,1.4389766E2,5.8758385E1,1.6676128E2,2.9993809E3,4.1946307E2,1.15771416E2,5.098986E1],"tree_param":{"num_deleted":"0","num_feature":"2","num_nodes":"11","size_leaf_vector":"1"}},{"base_weights":[-1.1046481E-2,1.5871998E-2,-4.1894114E-1,-1.8575918E-2,5.149443E-1,-6.313114E-1,7.48273E-2,-2.862903E-2,6.15005E-2,8.405252E-2,1.6426983E-1,-2.1917666E-1,-1.5520898E-1,-3.1115297E-2,1.4279181E-1],"categories":[],"categories_nodes":[],"categories_segments":[],"categories_sizes":[],"default_left":[0,0,0,0,0,0,0,0,0,0,0,0,0,0,0],"id":86,"left_children":[1,3,5,7,9,11,13,-1,-1,-1,-1,-1,-1,-1,-1],"loss_changes":[3.1916237E1,4.689608E1,1.8917406E1,4.3872036E1,1.195446E0,1.0466919E0,3.98965E0,0E0,0E0,0E0,0E0,0E0,0E0,0E0,0E0],"parents":[2147483647,0,0,1,1,2,2,3,3,4,4,5,5,6,6],"right_children":[2,4,6,8,10,12,14,-1,-1,-1,-1,-1,-1,-1,-1],"split_conditions":[7E0,1.9868927E2,8.720408E2,5E0,2.0228249E2,2.9845914E2,9.285238E2,-2.862903E-2,6.15005E-2,8.405252E-2,1.6426983E-1,-2.1917666E-1,-1.5520898E-1,-3.1115297E-2,1.4279181E-1],"split_indices":[0,1,1,0,1,1,1,0,0,0,0,0,0,0,0],"split_type":[0,0,0,0,0,0,0,0,0,0,0,0,0,0,0],"sum_hessian":[2.9051812E3,2.7262283E3,1.7895282E2,2.551104E3,1.7512434E2,1.249382E2,5.401461E1,1.8989264E3,6.5217755E2,2.253502E1,1.5258932E2,6.3875263E1,6.1062943E1,3.789116E1,1.612345E1],"tree_param":{"num_deleted":"0","num_feature":"2","num_nodes":"15","size_leaf_vector":"1"}},{"base_weights":[2.656394E-3,3.2974783E-2,-3.2919297E-1,2.3642126E-1,-3.5931103E-2,-5.0584173E-1,1.5531133E-1,5.7345205E-3,1.7892721E-1,1.2942629E-2,-1.1134394E-1,-5.1511604E-2,-1.5394938E-1,1.4867212E-1,-1.19345844E-1],"categories":[],"categories_nodes":[],"categories_segments":[],"categories_sizes":[],"default_left":[0,0,0,0,0,0,0,0,0,0,0,0,0,0,0],"id":87,"left_children":[1,3,5,7,9,11,13,-1,-1,-1,-1,-1,-1,-1,-1],"loss_changes":[2.1347115E1,2.7261349E1,1.5280479E1,3.8476585E1,3.8531666E1,2.3094559E-1,9.27298E0,0E0,0E0,0E0,0E0,0E0,0E0,0E0,0E0],"parents":[2147483647,0,0,1,1,2,2,3,3,4,4,5,5,6,6],"right_children":[2,4,6,8,10,12,14,-1,-1,-1,-1,-1,-1,-1,-1],"split_conditions":[1.19789345E2,2E0,7E0,1E0,5.0175472E1,1.2073226E2,1.9868927E2,5.7345205E-3,1.7892721E-1,1.2942629E-2,-1.1134394E-1,-5.1511604E-2,-1.5394938E-1,1.4867212E-1,-1.19345844E-1],"split_indices":[1,0,0,0,1,1,1,0,0,0,0,0,0,0,0],"split_type":[0,0,0,0,0,0,0,0,0,0,0,0,0,0,0],"sum_hessian":[2.1196606E3,1.9430414E3,1.7661934E2,4.9097968E2,1.4520616E3,1.293974E2,4.722193E1,3.068256E2,1.8415407E2,1.1756189E3,2.7644278E2,3.2993279E0,1.26098076E2,2.9301167E1,1.7920767E1],"tree_param":{"num_deleted":"0","num_feature":"2","num_nodes":"15","size_leaf_vector":"1"}},{"base_weights":[5.4814406E-3,2.1290141E-1,-6.8518263E-3,3.2865813E-1,-1.6278546E-1,-1.519824E-1,6.640299E-3,-7.535047E-2,1.6782157E-1,1.5881576E-2,-1.3046641E-2],"categories":[],"categories_nodes":[],"categories_segments":[],"categories_sizes":[],"default_left":[0,0,0,0,0,0,0,0,0,0,0],"id":88,"left_children":[1,3,5,7,-1,-1,9,-1,-1,-1,-1],"loss_changes":[9.406098E0,1.8225704E1,2.3407278E1,2.4165033E1,0E0,0E0,7.848553E0,0E0,0E0,0E0,0E0],"parents":[2147483647,0,0,1,1,2,2,3,3,6,6],"right_children":[2,4,6,8,-1,-1,10,-1,-1,-1,-1],"split_conditions":[1.8099895E1,6E0,2.9682531E1,1.2158756E1,-1.6278546E-1,-1.519824E-1,9.931893E1,-7.535047E-2,1.6782157E-1,1.5881576E-2,-1.3046641E-2],"split_indices":[1,0,1,1,0,0,1,0,0,0,0],"split_type":[0,0,0,0,0,0,0,0,0,0,0],"sum_hessian":[3.6753213E3,2.0535829E2,3.469963E3,1.7856456E2,2.6793728E1,9.025663E1,3.3797063E3,5.0807037E1,1.2775753E2,1.7569576E3,1.6227487E3],"tree_param":{"num_deleted":"0","num_feature":"2","num_nodes":"11","size_leaf_vector":"1"}},{"base_weights":[-9.118821E-3,-1.5423319E-1,1.1436325E-2,3.434596E-2,-3.7252548E-1,-1.1834232E-2,9.5028944E-2,-1.7805403E-1,1.8298557E-2],"categories":[],"categories_nodes":[],"categories_segments":[],"categories_sizes":[],"default_left":[0,0,0,0,0,0,0,0,0],"id":89,"left_children":[1,-1,3,5,7,-1,-1,-1,-1],"loss_changes":[2.9357222E1,0E0,2.3921629E1,5.348698E1,1.4706234E1,0E0,0E0,0E0,0E0],"parents":[2147483647,0,0,2,2,3,3,4,4],"right_children":[2,-1,4,6,8,-1,-1,-1,-1],"split_conditions":[1.746734E1,-1.5423319E-1,7E0,5E0,8.720408E2,-1.1834232E-2,9.5028944E-2,-1.7805403E-1,1.8298557E-2],"split_indices":[1,0,0,0,1,0,0,0,0],"split_type":[0,0,0,0,0,0,0,0,0],"sum_hessian":[2.8266333E3,1.096159E2,2.7170176E3,2.5648901E3,1.5212732E2,2.0342238E3,5.3066644E2,1.0051868E2,5.160864E1],"tree_param":{"num_deleted":"0","num_feature":"2","num_nodes":"9","size_leaf_vector":"1"}},{"base_weights":[7.0823487E-3,7.684697E-2,-1.3943775E-1,1.6968723E-1,1.2529081E-2,-5.2669114E-1,-1.3316472E-2,-4.9035627E-2,3.7100215E-2,-2.0761583E-2,-1.6099858E-1,7.130232E-2,-7.242291E-2],"categories":[],"categories_nodes":[],"categories_segments":[],"categories_sizes":[],"default_left":[0,0,0,0,0,0,0,0,0,0,0,0,0],"id":90,"left_children":[1,3,5,-1,7,9,11,-1,-1,-1,-1,-1,-1],"loss_changes":[2.0628885E1,4.296995E1,3.1787174E1,0E0,2.3668646E1,6.9223404E-1,2.8228333E1,0E0,0E0,0E0,0E0,0E0,0E0],"parents":[2147483647,0,0,1,1,2,2,4,4,5,5,6,6],"right_children":[2,4,6,-1,8,10,12,-1,-1,-1,-1,-1,-1],"split_conditions":[6.975118E1,2E0,1E0,1.6968723E-1,4E0,7.045627E1,2E0,-4.9035627E-2,3.7100215E-2,-2.0761583E-2,-1.6099858E-1,7.130232E-2,-7.242291E-2],"split_indices":[1,0,0,0,0,1,0,0,0,0,0,0,0],"split_type":[0,0,0,0,0,0,0,0,0,0,0,0,0],"sum_hessian":[2.0160546E3,1.3660798E3,6.499748E2,1.5795131E2,1.2081285E3,1.588997E2,4.9107507E2,4.6746057E2,7.406679E2,3.5586753E0,1.5534103E2,2.3378217E2,2.572929E2],"tree_param":{"num_deleted":"0","num_feature":"2","num_nodes":"13","size_leaf_vector":"1"}},{"base_weights":[4.159083E-3,1.9770107E-1,-6.141253E-3,3.0890363E-1,-1.5907972E-1,-1.5108047E-1,5.3138616E-3,-6.729485E-2,1.6393483E-1,1.4307167E-2,-1.2648692E-2],"categories":[],"categories_nodes":[],"categories_segments":[],"categories_sizes":[],"default_left":[0,0,0,0,0,0,0,0,0,0,0],"id":91,"left_children":[1,3,5,7,-1,-1,9,-1,-1,-1,-1],"loss_changes":[7.138152E0,1.4810543E1,1.9377954E1,2.0083248E1,0E0,0E0,6.6906056E0,0E0,0E0,0E0,0E0],"parents":[2147483647,0,0,1,1,2,2,3,3,6,6],"right_children":[2,4,6,8,-1,-1,10,-1,-1,-1,-1],"split_conditions":[1.8099895E1,6E0,2.9682531E1,1.2158756E1,-1.5907972E-1,-1.5108047E-1,1.002216E2,-6.729485E-2,1.6393483E-1,